{"learner":{"attributes":{},"feature_names":["Age","CCI","Hemoglobin","Albumin","Creatinine","BUN","BCR","PF_ratio","Urine_output","SOFA"],"feature_types":["int","int","float","float","float","float","float","float","float","int"],"gradient_booster":{"model":{"gbtree_model_param":{"num_parallel_tree":"1","num_trees":"1200"},"iteration_indptr":[0,3,6,9,12,15,18,21,24,27,30,33,36,39,42,45,48,51,54,57,60,63,66,69,72,75,78,81,84,87,90,93,96,99,102,105,108,111,114,117,120,123,126,129,132,135,138,141,144,147,150,153,156,159,162,165,168,171,174,177,180,183,186,189,192,195,198,201,204,207,210,213,216,219,222,225,228,231,234,237,240,243,246,249,252,255,258,261,264,267,270,273,276,279,282,285,288,291,294,297,300,303,306,309,312,315,318,321,324,327,330,333,336,339,342,345,348,351,354,357,360,363,366,369,372,375,378,381,384,387,390,393,396,399,402,405,408,411,414,417,420,423,426,429,432,435,438,441,444,447,450,453,456,459,462,465,468,471,474,477,480,483,486,489,492,495,498,501,504,507,510,513,516,519,522,525,528,531,534,537,540,543,546,549,552,555,558,561,564,567,570,573,576,579,582,585,588,591,594,597,600,603,606,609,612,615,618,621,624,627,630,633,636,639,642,645,648,651,654,657,660,663,666,669,672,675,678,681,684,687,690,693,696,699,702,705,708,711,714,717,720,723,726,729,732,735,738,741,744,747,750,753,756,759,762,765,768,771,774,777,780,783,786,789,792,795,798,801,804,807,810,813,816,819,822,825,828,831,834,837,840,843,846,849,852,855,858,861,864,867,870,873,876,879,882,885,888,891,894,897,900,903,906,909,912,915,918,921,924,927,930,933,936,939,942,945,948,951,954,957,960,963,966,969,972,975,978,981,984,987,990,993,996,999,1002,1005,1008,1011,1014,1017,1020,1023,1026,1029,1032,1035,1038,1041,1044,1047,1050,1053,1056,1059,1062,1065,1068,1071,1074,1077,1080,1083,1086,1089,1092,1095,1098,1101,1104,1107,1110,1113,1116,1119,1122,1125,1128,1131,1134,1137,1140,1143,1146,1149,1152,1155,1158,1161,1164,1167,1170,1173,1176,1179,1182,1185,1188,1191,1194,1197,1200],"tree_info":[0,1,2,0,1,2,0,1,2,0,1,2,0,1,2,0,1,2,0,1,2,0,1,2,0,1,2,0,1,2,0,1,2,0,1,2,0,1,2,0,1,2,0,1,2,0,1,2,0,1,2,0,1,2,0,1,2,0,1,2,0,1,2,0,1,2,0,1,2,0,1,2,0,1,2,0,1,2,0,1,2,0,1,2,0,1,2,0,1,2,0,1,2,0,1,2,0,1,2,0,1,2,0,1,2,0,1,2,0,1,2,0,1,2,0,1,2,0,1,2,0,1,2,0,1,2,0,1,2,0,1,2,0,1,2,0,1,2,0,1,2,0,1,2,0,1,2,0,1,2,0,1,2,0,1,2,0,1,2,0,1,2,0,1,2,0,1,2,0,1,2,0,1,2,0,1,2,0,1,2,0,1,2,0,1,2,0,1,2,0,1,2,0,1,2,0,1,2,0,1,2,0,1,2,0,1,2,0,1,2,0,1,2,0,1,2,0,1,2,0,1,2,0,1,2,0,1,2,0,1,2,0,1,2,0,1,2,0,1,2,0,1,2,0,1,2,0,1,2,0,1,2,0,1,2,0,1,2,0,1,2,0,1,2,0,1,2,0,1,2,0,1,2,0,1,2,0,1,2,0,1,2,0,1,2,0,1,2,0,1,2,0,1,2,0,1,2,0,1,2,0,1,2,0,1,2,0,1,2,0,1,2,0,1,2,0,1,2,0,1,2,0,1,2,0,1,2,0,1,2,0,1,2,0,1,2,0,1,2,0,1,2,0,1,2,0,1,2,0,1,2,0,1,2,0,1,2,0,1,2,0,1,2,0,1,2,0,1,2,0,1,2,0,1,2,0,1,2,0,1,2,0,1,2,0,1,2,0,1,2,0,1,2,0,1,2,0,1,2,0,1,2,0,1,2,0,1,2,0,1,2,0,1,2,0,1,2,0,1,2,0,1,2,0,1,2,0,1,2,0,1,2,0,1,2,0,1,2,0,1,2,0,1,2,0,1,2,0,1,2,0,1,2,0,1,2,0,1,2,0,1,2,0,1,2,0,1,2,0,1,2,0,1,2,0,1,2,0,1,2,0,1,2,0,1,2,0,1,2,0,1,2,0,1,2,0,1,2,0,1,2,0,1,2,0,1,2,0,1,2,0,1,2,0,1,2,0,1,2,0,1,2,0,1,2,0,1,2,0,1,2,0,1,2,0,1,2,0,1,2,0,1,2,0,1,2,0,1,2,0,1,2,0,1,2,0,1,2,0,1,2,0,1,2,0,1,2,0,1,2,0,1,2,0,1,2,0,1,2,0,1,2,0,1,2,0,1,2,0,1,2,0,1,2,0,1,2,0,1,2,0,1,2,0,1,2,0,1,2,0,1,2,0,1,2,0,1,2,0,1,2,0,1,2,0,1,2,0,1,2,0,1,2,0,1,2,0,1,2,0,1,2,0,1,2,0,1,2,0,1,2,0,1,2,0,1,2,0,1,2,0,1,2,0,1,2,0,1,2,0,1,2,0,1,2,0,1,2,0,1,2,0,1,2,0,1,2,0,1,2,0,1,2,0,1,2,0,1,2,0,1,2,0,1,2,0,1,2,0,1,2,0,1,2,0,1,2,0,1,2,0,1,2,0,1,2,0,1,2,0,1,2,0,1,2,0,1,2,0,1,2,0,1,2,0,1,2,0,1,2,0,1,2,0,1,2,0,1,2,0,1,2,0,1,2,0,1,2,0,1,2,0,1,2,0,1,2,0,1,2,0,1,2,0,1,2,0,1,2,0,1,2,0,1,2,0,1,2,0,1,2,0,1,2,0,1,2,0,1,2,0,1,2,0,1,2,0,1,2,0,1,2,0,1,2,0,1,2,0,1,2,0,1,2,0,1,2,0,1,2,0,1,2,0,1,2,0,1,2,0,1,2,0,1,2,0,1,2,0,1,2,0,1,2,0,1,2,0,1,2,0,1,2,0,1,2,0,1,2,0,1,2,0,1,2,0,1,2,0,1,2,0,1,2,0,1,2,0,1,2,0,1,2,0,1,2,0,1,2,0,1,2,0,1,2,0,1,2,0,1,2,0,1,2,0,1,2,0,1,2,0,1,2,0,1,2,0,1,2,0,1,2,0,1,2,0,1,2,0,1,2,0,1,2,0,1,2,0,1,2,0,1,2,0,1,2,0,1,2,0,1,2,0,1,2,0,1,2,0,1,2,0,1,2,0,1,2,0,1,2,0,1,2,0,1,2,0,1,2,0,1,2,0,1,2,0,1,2,0,1,2,0,1,2,0,1,2,0,1,2,0,1,2,0,1,2,0,1,2,0,1,2,0,1,2,0,1,2,0,1,2,0,1,2,0,1,2,0,1,2,0,1,2,0,1,2,0,1,2,0,1,2,0,1,2,0,1,2,0,1,2,0,1,2,0,1,2,0,1,2,0,1,2,0,1,2,0,1,2,0,1,2,0,1,2,0,1,2,0,1,2,0,1,2,0,1,2,0,1,2,0,1,2,0,1,2,0,1,2,0,1,2,0,1,2,0,1,2,0,1,2,0,1,2,0,1,2,0,1,2,0,1,2,0,1,2,0,1,2,0,1,2,0,1,2,0,1,2,0,1,2,0,1,2,0,1,2,0,1,2,0,1,2,0,1,2,0,1,2,0,1,2,0,1,2,0,1,2,0,1,2,0,1,2,0,1,2,0,1,2],"trees":[{"base_weights":[9.799967E-2,-5.829859E-1,8.265397E-1,-6.648483E-1,-2.1842502E-1,3.9842063E-1,1.1244309E0,-6.8233675E-1,4.897959E-1,5.59322E-1,-4.8712876E-1,6.7283237E-1,-5.0279375E-2,1.2594595E0,3.9252332E-1,5.1724124E-3,-3.4406547E-2,-2.1428574E-2,4.4594597E-2,4.2413794E-2,-2.9268295E-2,-2.8973108E-2,-4.2857165E-3,4.4560667E-2,-1.8152868E-2,-1.6468845E-2,2.0095693E-2,5.1642574E-2,7.1796276E-2,3.972973E-2,-7.241382E-3],"categories":[],"categories_nodes":[],"categories_segments":[],"categories_sizes":[],"default_left":[0,0,0,0,0,0,0,0,0,0,0,0,0,0,0,0,0,0,0,0,0,0,0,0,0,0,0,0,0,0,0],"id":0,"left_children":[1,3,5,7,9,11,13,15,17,19,21,23,25,27,29,-1,-1,-1,-1,-1,-1,-1,-1,-1,-1,-1,-1,-1,-1,-1,-1],"loss_changes":[3.8354562E2,1.1782394E1,4.7178482E1,6.9148254E0,1.5899787E1,1.9091387E1,2.1214935E1,1.534729E0,2.3927193E0,7.001537E0,2.0300303E0,2.206569E1,7.6626725E0,5.914795E0,7.8209844E0,0E0,0E0,0E0,0E0,0E0,0E0,0E0,0E0,0E0,0E0,0E0,0E0,0E0,0E0,0E0,0E0],"parents":[2147483647,0,0,1,1,2,2,3,3,4,4,5,5,6,6,7,7,8,8,9,9,10,10,11,11,12,12,13,13,14,14],"right_children":[2,4,6,8,10,12,14,16,18,20,22,24,26,28,30,-1,-1,-1,-1,-1,-1,-1,-1,-1,-1,-1,-1,-1,-1,-1,-1],"split_conditions":[3E0,6E1,7.3E1,1.7561801E2,9.6E0,1.22E1,2.26E0,5.1E0,4.1E1,1.7176E0,7.073735E1,2.825E0,6.9E1,5E0,1.1E1,5.1724124E-3,-3.4406547E-2,-2.1428574E-2,4.4594597E-2,4.2413794E-2,-2.9268295E-2,-2.8973108E-2,-4.2857165E-3,4.4560667E-2,-1.8152868E-2,-1.6468845E-2,2.0095693E-2,5.1642574E-2,7.1796276E-2,3.972973E-2,-7.241382E-3],"split_indices":[1,0,0,6,2,2,4,2,0,4,6,4,0,1,9,0,0,0,0,0,0,0,0,0,0,0,0,0,0,0,0],"split_type":[0,0,0,0,0,0,0,0,0,0,0,0,0,0,0,0,0,0,0,0,0,0,0,0,0,0,0,0,0,0,0],"sum_hessian":[7.711111E2,3.9866666E2,3.7244443E2,3.2488885E2,7.377777E1,1.5377777E2,2.1866666E2,3.2044443E2,4.444444E0,1.8666666E1,5.5111107E1,9.511111E1,5.8666664E1,1.8399998E2,3.4666664E1,2.222222E0,3.182222E2,1.3333333E0,3.111111E0,1.5111111E1,3.5555553E0,4.4444443E1,1.0666666E1,7.8666664E1,1.6444443E1,3.6444443E1,2.2222221E1,8.355555E1,1.00444435E2,1.9555553E1,1.5111111E1],"tree_param":{"num_deleted":"0","num_feature":"10","num_nodes":"31","size_leaf_vector":"1"}},{"base_weights":[1.5419953E-1,6.912789E-1,-4.1565737E-1,1.0554049E0,-2.3893811E-1,-2.8821006E-2,-6.1093825E-1,1.2447257E0,1.5098464E-1,5.373134E-1,-4.2545462E-1,-3.44932E-1,3.955375E-1,-6.7032427E-1,-1.1857712E-1,3.7041564E-2,6.78592E-2,3E-2,-2.81768E-2,-2.9702992E-3,5.2293576E-2,6.2176147E-3,-2.9251173E-2,-2.1739133E-2,4.2857144E-2,-2.1580993E-9,4.045643E-2,-2.4945298E-2,-3.5838153E-2,2.093023E-2,-3.157895E-2],"categories":[],"categories_nodes":[],"categories_segments":[],"categories_sizes":[],"default_left":[0,0,0,0,0,0,0,0,0,0,0,0,0,0,0,0,0,0,0,0,0,0,0,0,0,0,0,0,0,0,0],"id":1,"left_children":[1,3,5,7,9,11,13,15,17,19,21,23,25,27,29,-1,-1,-1,-1,-1,-1,-1,-1,-1,-1,-1,-1,-1,-1,-1,-1],"loss_changes":[2.371425E2,1.3532465E2,2.8394478E1,4.8915802E1,1.6589159E1,1.7202578E1,7.2270966E0,1.2424622E1,1.662919E1,6.8395495E0,8.114855E0,8.305204E0,8.961141E0,1.4158249E0,8.011108E0,0E0,0E0,0E0,0E0,0E0,0E0,0E0,0E0,0E0,0E0,0E0,0E0,0E0,0E0,0E0,0E0],"parents":[2147483647,0,0,1,1,2,2,3,3,4,4,5,5,6,6,7,7,8,8,9,9,10,10,11,11,12,12,13,13,14,14],"right_children":[2,4,6,8,10,12,14,16,18,20,22,24,26,28,30,-1,-1,-1,-1,-1,-1,-1,-1,-1,-1,-1,-1,-1,-1,-1,-1],"split_conditions":[3E0,1E1,4E0,6.98718E1,3.1512E1,1.2E1,3.77E0,9.31E0,8E0,3.14E0,1.1E1,3.014E3,3.39E0,3.7572E1,5E0,3.7041564E-2,6.78592E-2,3E-2,-2.81768E-2,-2.9702992E-3,5.2293576E-2,6.2176147E-3,-2.9251173E-2,-2.1739133E-2,4.2857144E-2,-2.1580993E-9,4.045643E-2,-2.4945298E-2,-3.5838153E-2,2.093023E-2,-3.157895E-2],"split_indices":[1,9,1,5,5,2,3,2,9,3,9,8,3,5,1,0,0,0,0,0,0,0,0,0,0,0,0,0,0,0,0],"split_type":[0,0,0,0,0,0,0,0,0,0,0,0,0,0,0,0,0,0,0,0,0,0,0,0,0,0,0,0,0,0,0],"sum_hessian":[7.7288885E2,3.9777774E2,3.7511108E2,2.8577777E2,1.1199999E2,1.2622221E2,2.4888887E2,2.3599998E2,4.9777775E1,2.1333332E1,9.0666664E1,7.244444E1,5.3777775E1,2.2177777E2,2.7111109E1,4.4444443E1,1.9155554E2,3.0666664E1,1.911111E1,1.0222221E1,1.1111111E1,2.0444443E1,7.022222E1,6.799999E1,4.444444E0,2.7999998E1,2.5777777E1,4.9777775E1,1.7199998E2,1.3333332E1,1.3777777E1],"tree_param":{"num_deleted":"0","num_feature":"10","num_nodes":"31","size_leaf_vector":"1"}},{"base_weights":[-2.4908644E-1,-5.0766677E-1,7.2651356E-1,-6.1260676E-1,5.978894E-2,1.1061844E0,1.6298808E-1,-7.0319784E-1,-3.9351517E-1,7.741935E-1,-4.0882924E-1,2.1897806E-1,1.2592592E0,6.338028E-1,-1.0129875E-1,-1.7881394E-9,-3.5557304E-2,-9.7093815E-3,-3.1773403E-2,5.210526E-2,-2.5384618E-2,9.022555E-3,-2.9848872E-2,-1.846154E-2,3.333333E-2,6.401674E-2,-1.2772424E-9,-1.4150946E-2,4.4378698E-2,-1.54205635E-2,4.109589E-2],"categories":[],"categories_nodes":[],"categories_segments":[],"categories_sizes":[],"default_left":[0,0,0,0,0,0,0,0,0,0,0,0,0,0,0,0,0,0,0,0,0,0,0,0,0,0,0,0,0,0,0],"id":2,"left_children":[1,3,5,7,9,11,13,15,17,19,21,23,25,27,29,-1,-1,-1,-1,-1,-1,-1,-1,-1,-1,-1,-1,-1,-1,-1,-1],"loss_changes":[1.9212279E2,3.5851913E1,3.3981064E1,9.799332E0,3.2046497E1,1.26562805E1,8.207463E0,2.0003052E0,7.1482906E0,1.3541336E1,6.525983E0,4.254688E0,2.1496887E0,5.757555E0,8.433015E0,0E0,0E0,0E0,0E0,0E0,0E0,0E0,0E0,0E0,0E0,0E0,0E0,0E0,0E0,0E0,0E0],"parents":[2147483647,0,0,1,1,2,2,3,3,4,4,5,5,6,6,7,7,8,8,9,9,10,10,11,11,12,12,13,13,14,14],"right_children":[2,4,6,8,10,12,14,16,18,20,22,24,26,28,30,-1,-1,-1,-1,-1,-1,-1,-1,-1,-1,-1,-1,-1,-1,-1,-1],"split_conditions":[1.1E1,8.74458E1,6.7E1,8E0,5.1968487E1,2.9088E1,3.909513E1,1.867E0,3E0,8.2E1,5.7E1,1.2E1,4.6E0,3.38754E1,1.524696E2,-1.7881394E-9,-3.5557304E-2,-9.7093815E-3,-3.1773403E-2,5.210526E-2,-2.5384618E-2,9.022555E-3,-2.9848872E-2,-1.846154E-2,3.333333E-2,6.401674E-2,-1.2772424E-9,-1.4150946E-2,4.4378698E-2,-1.54205635E-2,4.109589E-2],"split_indices":[9,5,0,9,6,5,6,3,1,0,0,9,3,5,5,0,0,0,0,0,0,0,0,0,0,0,0,0,0,0,0],"split_type":[0,0,0,0,0,0,0,0,0,0,0,0,0,0,0,0,0,0,0,0,0,0,0,0,0,0,0,0,0,0,0],"sum_hessian":[7.591111E2,6.004444E2,1.5866666E2,5.0666663E2,9.377777E1,9.422221E1,6.444444E1,3.5688885E2,1.4977777E2,3.6888885E1,5.6888885E1,1.4222221E1,7.999999E1,2.2666666E1,4.1777775E1,3.9999998E0,3.5288885E2,8.311111E1,6.6666664E1,3.0666664E1,6.222222E0,1.3777777E1,4.3111107E1,6.222222E0,7.9999995E0,7.8666664E1,1.3333333E0,4.8888884E0,1.7777777E1,3.4666664E1,7.1111107E0],"tree_param":{"num_deleted":"0","num_feature":"10","num_nodes":"31","size_leaf_vector":"1"}},{"base_weights":[9.238157E-2,-5.131359E-1,8.371251E-1,-6.3092566E-1,-6.093287E-2,4.3441844E-1,1.0618317E0,-6.570886E-1,3.6902882E-2,5.153005E-1,-4.3824118E-1,7.2173375E-1,7.766898E-2,1.1577326E0,1.5945934E-1,-2.0473596E-2,-3.4377992E-2,1.9999122E-2,-2.311656E-2,3.437128E-2,-1.6768517E-2,-2.6118446E-2,9.508017E-3,4.5670215E-2,-5.9455307E-3,1.781442E-2,-1.1326285E-2,6.1334014E-2,2.8588075E-2,1.9027682E-2,-2.3525579E-2],"categories":[],"categories_nodes":[],"categories_segments":[],"categories_sizes":[],"default_left":[0,0,0,0,0,0,0,0,0,0,0,0,0,0,0,0,0,0,0,0,0,0,0,0,0,0,0,0,0,0,0],"id":3,"left_children":[1,3,5,7,9,11,13,15,17,19,21,23,25,27,29,-1,-1,-1,-1,-1,-1,-1,-1,-1,-1,-1,-1,-1,-1,-1,-1],"loss_changes":[3.5049802E2,2.2800598E1,3.1074783E1,5.9660187E0,1.9731518E1,1.2910833E1,1.9112778E1,2.1879883E0,2.6803706E0,5.4957476E0,2.994072E0,1.1379734E1,4.9587445E0,7.435913E0,3.3243332E0,0E0,0E0,0E0,0E0,0E0,0E0,0E0,0E0,0E0,0E0,0E0,0E0,0E0,0E0,0E0,0E0],"parents":[2147483647,0,0,1,1,2,2,3,3,4,4,5,5,6,6,7,7,8,8,9,9,10,10,11,11,12,12,13,13,14,14],"right_children":[2,4,6,8,10,12,14,16,18,20,22,24,26,28,30,-1,-1,-1,-1,-1,-1,-1,-1,-1,-1,-1,-1,-1,-1,-1,-1],"split_conditions":[6.5E1,6E1,7.3E1,1.1690525E2,1.07E1,1.15E1,1.3E1,7.8E0,6.328E-1,2.4295E0,7.720785E1,2.0114E0,1.56E3,2.52103E0,1.64226E2,-2.0473596E-2,-3.4377992E-2,1.9999122E-2,-2.311656E-2,3.437128E-2,-1.6768517E-2,-2.6118446E-2,9.508017E-3,4.5670215E-2,-5.9455307E-3,1.781442E-2,-1.1326285E-2,6.1334014E-2,2.8588075E-2,1.9027682E-2,-2.3525579E-2],"split_indices":[0,0,0,6,2,2,9,2,4,4,6,4,8,4,5,0,0,0,0,0,0,0,0,0,0,0,0,0,0,0,0],"split_type":[0,0,0,0,0,0,0,0,0,0,0,0,0,0,0,0,0,0,0,0,0,0,0,0,0,0,0,0,0,0,0],"sum_hessian":[7.7528204E2,4.2778238E2,3.4749966E2,3.3906708E2,8.871531E1,1.25506744E2,2.219929E2,3.263E2,1.2767091E1,3.4959175E1,5.3756134E1,6.895188E1,5.6554867E1,2.0041098E2,2.1581932E1,3.7336105E1,2.889639E2,7.5065713E0,5.26052E0,2.9235546E1,5.7236295E0,4.7558002E1,6.198132E0,5.607906E1,1.287282E1,2.942893E1,2.7125937E1,1.7833405E2,2.2076927E1,1.6268328E1,5.3136053E0],"tree_param":{"num_deleted":"0","num_feature":"10","num_nodes":"31","size_leaf_vector":"1"}},{"base_weights":[1.4600562E-1,6.5748036E-1,-4.1550586E-1,9.303832E-1,-4.0711528E-1,-7.215632E-2,-5.8817077E-1,1.0524579E0,-1.2316759E-3,3.226916E-2,-6.048811E-1,-4.4274113E-1,2.6217717E-1,-6.471488E-1,-1.00922085E-1,2.9413372E-2,6.2804505E-2,-1.4335783E-2,4.383068E-2,3.7931807E-2,-2.0399323E-2,-3.267269E-2,2.0344937E-2,-2.660959E-2,4.353207E-2,2.2547817E-2,-2.3869356E-2,8.7365706E-4,-3.3614192E-2,2.2289481E-2,-3.093249E-2],"categories":[],"categories_nodes":[],"categories_segments":[],"categories_sizes":[],"default_left":[0,0,0,0,0,0,0,0,0,0,0,0,0,0,0,0,0,0,0,0,0,0,0,0,0,0,0,0,0,0,0],"id":4,"left_children":[1,3,5,7,9,11,13,15,17,19,21,23,25,27,29,-1,-1,-1,-1,-1,-1,-1,-1,-1,-1,-1,-1,-1,-1,-1,-1],"loss_changes":[2.2077878E2,1.1722441E2,2.1691269E1,3.6441925E1,7.210635E0,1.5455882E1,6.940529E0,2.6039917E1,9.80494E0,8.82741E0,3.0730476E0,7.4057646E0,9.390191E0,3.6415482E0,8.061812E0,0E0,0E0,0E0,0E0,0E0,0E0,0E0,0E0,0E0,0E0,0E0,0E0,0E0,0E0,0E0,0E0],"parents":[2147483647,0,0,1,1,2,2,3,3,4,4,5,5,6,6,7,7,8,8,9,9,10,10,11,11,12,12,13,13,14,14],"right_children":[2,4,6,8,10,12,14,16,18,20,22,24,26,28,30,-1,-1,-1,-1,-1,-1,-1,-1,-1,-1,-1,-1,-1,-1,-1,-1],"split_conditions":[3E0,1.1E1,4E0,1.6046E0,9.6502E-1,1.115E1,3.77E0,2.96E0,3.44E0,4.3877716E1,4.4E0,3.014E3,1.1E1,6.3E1,5E0,2.9413372E-2,6.2804505E-2,-1.4335783E-2,4.383068E-2,3.7931807E-2,-2.0399323E-2,-3.267269E-2,2.0344937E-2,-2.660959E-2,4.353207E-2,2.2547817E-2,-2.3869356E-2,8.7365706E-4,-3.3614192E-2,2.2289481E-2,-3.093249E-2],"split_indices":[1,9,1,4,4,2,3,3,3,6,3,8,9,0,1,0,0,0,0,0,0,0,0,0,0,0,0,0,0,0,0],"split_type":[0,0,0,0,0,0,0,0,0,0,0,0,0,0,0,0,0,0,0,0,0,0,0,0,0,0,0,0,0,0,0],"sum_hessian":[7.6678E2,4.0117926E2,3.6560077E2,3.1942307E2,8.175618E1,1.2280905E2,2.427917E2,2.823018E2,3.7121273E1,2.563614E1,5.6120037E1,5.8092934E1,6.471612E1,2.1628389E2,2.6507809E1,8.726514E1,1.9503667E2,2.8519754E1,8.60152E0,9.401562E0,1.623458E1,5.388722E1,2.2328167E0,5.4945545E1,3.1473908E0,5.1866947E1,1.2849173E1,7.892598E0,2.083913E2,1.2960592E1,1.3547215E1],"tree_param":{"num_deleted":"0","num_feature":"10","num_nodes":"31","size_leaf_vector":"1"}},{"base_weights":[-2.5287995E-1,-4.9748808E-1,6.3696E-1,-6.0811627E-1,4.950156E-1,9.904427E-1,7.977391E-2,-6.919349E-1,-4.0520626E-1,7.019812E-1,-3.3326518E-2,1.2191601E-1,1.135357E0,-2.9813358E-1,8.128497E-1,8.5652695E-4,-3.484222E-2,-7.4762986E-3,-3.3354092E-2,7.611058E-3,4.632067E-2,-1.930267E-2,2.674282E-2,3.3350803E-2,6.1909992E-2,-2.3935864E-2,2.4802971E-3,4.5574587E-2,-2.165643E-2],"categories":[],"categories_nodes":[],"categories_segments":[],"categories_sizes":[],"default_left":[0,0,0,0,0,0,0,0,0,0,0,0,0,0,0,0,0,0,0,0,0,0,0,0,0,0,0,0,0],"id":5,"left_children":[1,3,5,7,9,11,13,15,17,19,-1,21,23,25,27,-1,-1,-1,-1,-1,-1,-1,-1,-1,-1,-1,-1,-1,-1],"loss_changes":[1.6846301E2,6.68945E1,3.2813774E1,9.00798E0,1.5222408E1,1.2711319E1,1.850232E1,1.3524475E0,1.0751318E1,6.346493E0,0E0,3.5037048E0,3.3825607E0,2.800806E0,3.1833782E0,0E0,0E0,0E0,0E0,0E0,0E0,0E0,0E0,0E0,0E0,0E0,0E0,0E0,0E0],"parents":[2147483647,0,0,1,1,2,2,3,3,4,4,5,5,6,6,7,7,8,8,9,9,11,11,12,12,13,13,14,14],"right_children":[2,4,6,8,10,12,14,16,18,20,-1,22,24,26,28,-1,-1,-1,-1,-1,-1,-1,-1,-1,-1,-1,-1,-1,-1],"split_conditions":[1.1E1,2.26E0,6.7E1,8E0,8.4E1,2.9088E1,2.1131E0,1.05E2,3E0,7.8174E1,-3.3326518E-2,1.2E1,9.718E-1,1.3E1,3.823E0,8.5652695E-4,-3.484222E-2,-7.4762986E-3,-3.3354092E-2,7.611058E-3,4.632067E-2,-1.930267E-2,2.674282E-2,3.3350803E-2,6.1909992E-2,-2.3935864E-2,2.4802971E-3,4.5574587E-2,-2.165643E-2],"split_indices":[9,4,0,9,0,5,4,8,1,5,0,9,4,9,3,0,0,0,0,0,0,0,0,0,0,0,0,0,0],"split_type":[0,0,0,0,0,0,0,0,0,0,0,0,0,0,0,0,0,0,0,0,0,0,0,0,0,0,0,0,0],"sum_hessian":[7.7150995E2,6.055039E2,1.6600607E2,5.45129E2,6.0374847E1,1.0109386E2,6.4912224E1,3.8406744E2,1.610616E2,5.1579926E1,8.794921E0,1.4718941E1,8.6374916E1,4.322344E1,2.1688782E1,2.623871E0,3.8144357E2,8.2289665E1,7.8771935E1,1.5439121E1,3.6140804E1,6.62924E0,8.089701E0,1.6899815E1,6.94751E1,2.8201527E1,1.5021914E1,2.034644E1,1.3423413E0],"tree_param":{"num_deleted":"0","num_feature":"10","num_nodes":"29","size_leaf_vector":"1"}},{"base_weights":[8.2990095E-2,-5.700281E-1,7.44095E-1,-6.4116585E-1,-2.4041346E-1,3.4694216E-1,1.0127552E0,-6.5558475E-1,4.0206113E-1,5.243629E-1,-5.2990794E-1,6.127392E-1,-8.250339E-2,1.1237082E0,3.9926586E-1,1.2830381E-2,-3.3073463E-2,4.0273037E-2,-2.0847494E-2,3.560477E-2,-2.6433235E-2,-1.7580083E-2,-3.3563357E-2,3.9739784E-2,-1.8706754E-2,-2.811837E-2,8.386763E-3,5.8125276E-2,2.0596279E-2,3.5995837E-2,-1.8360898E-3],"categories":[],"categories_nodes":[],"categories_segments":[],"categories_sizes":[],"default_left":[0,0,0,0,0,0,0,0,0,0,0,0,0,0,0,0,0,0,0,0,0,0,0,0,0,0,0,0,0,0,0],"id":6,"left_children":[1,3,5,7,9,11,13,15,17,19,21,23,25,27,29,-1,-1,-1,-1,-1,-1,-1,-1,-1,-1,-1,-1,-1,-1,-1,-1],"loss_changes":[3.3523096E2,9.007416E0,4.08145E1,5.0885315E0,1.5987488E1,1.79941E1,1.5180801E1,1.8700714E0,1.9853997E0,4.327577E0,1.0738888E0,1.7764427E1,7.4168215E0,4.8756104E0,5.1596003E0,0E0,0E0,0E0,0E0,0E0,0E0,0E0,0E0,0E0,0E0,0E0,0E0,0E0,0E0,0E0,0E0],"parents":[2147483647,0,0,1,1,2,2,3,3,4,4,5,5,6,6,7,7,8,8,9,9,10,10,11,11,12,12,13,13,14,14],"right_children":[2,4,6,8,10,12,14,16,18,20,22,24,26,28,30,-1,-1,-1,-1,-1,-1,-1,-1,-1,-1,-1,-1,-1,-1,-1,-1],"split_conditions":[3E0,6.1E1,7.3E1,1.7561801E2,9.6E0,1.22E1,2.26E0,5.1E0,7.458E-1,1.7176E0,3.28E0,2.825E0,6.4E1,1.3E1,1.1E1,1.2830381E-2,-3.3073463E-2,4.0273037E-2,-2.0847494E-2,3.560477E-2,-2.6433235E-2,-1.7580083E-2,-3.3563357E-2,3.9739784E-2,-1.8706754E-2,-2.811837E-2,8.386763E-3,5.8125276E-2,2.0596279E-2,3.5995837E-2,-1.8360898E-3],"split_indices":[1,0,0,6,2,2,4,2,4,4,3,4,0,9,9,0,0,0,0,0,0,0,0,0,0,0,0,0,0,0,0],"split_type":[0,0,0,0,0,0,0,0,0,0,0,0,0,0,0,0,0,0,0,0,0,0,0,0,0,0,0,0,0,0,0],"sum_hessian":[7.7452997E2,3.8971738E2,3.8481256E2,3.1976108E2,6.995631E1,1.5619908E2,2.2861348E2,3.1576828E2,3.992795E0,1.8986675E1,5.0969635E1,9.621922E1,5.997986E1,1.9289552E2,3.5717945E1,1.7508397E0,3.1401746E2,2.6862442E0,1.3065507E0,1.6388683E1,2.5979917E0,2.408138E1,2.6888252E1,8.139777E1,1.4821448E1,2.013025E1,3.9849606E1,1.8232431E2,1.057122E1,2.020602E1,1.5511924E1],"tree_param":{"num_deleted":"0","num_feature":"10","num_nodes":"31","size_leaf_vector":"1"}},{"base_weights":[1.4031096E-1,6.262178E-1,-4.0151134E-1,8.93724E-1,-4.1923967E-1,-5.3268556E-2,-5.791926E-1,1.0513049E0,1.1585243E-1,4.264389E-1,-5.6761867E-1,-3.7138304E-1,3.7586662E-1,-6.385531E-1,-6.737327E-2,3.4647666E-2,6.0343664E-2,-1.0758728E-2,4.330511E-2,-1.8935151E-2,3.8371664E-2,-3.0216966E-2,1.5137756E-2,-2.3718918E-2,4.2785905E-2,-1.379235E-2,3.182321E-2,5.883409E-3,-3.3377554E-2,-2.2756321E-2,2.8190112E-2],"categories":[],"categories_nodes":[],"categories_segments":[],"categories_sizes":[],"default_left":[0,0,0,0,0,0,0,0,0,0,0,0,0,0,0,0,0,0,0,0,0,0,0,0,0,0,0,0,0,0,0],"id":7,"left_children":[1,3,5,7,9,11,13,15,17,19,21,23,25,27,29,-1,-1,-1,-1,-1,-1,-1,-1,-1,-1,-1,-1,-1,-1,-1,-1],"loss_changes":[2.0615408E2,1.15794876E2,2.2886532E1,4.0198914E1,1.087864E1,1.7371887E1,7.404907E0,1.4405548E1,1.422705E1,3.9212003E0,2.5014782E0,9.631537E0,9.386604E0,4.8930206E0,6.765422E0,0E0,0E0,0E0,0E0,0E0,0E0,0E0,0E0,0E0,0E0,0E0,0E0,0E0,0E0,0E0,0E0],"parents":[2147483647,0,0,1,1,2,2,3,3,4,4,5,5,6,6,7,7,8,8,9,9,10,10,11,11,12,12,13,13,14,14],"right_children":[2,4,6,8,10,12,14,16,18,20,22,24,26,28,30,-1,-1,-1,-1,-1,-1,-1,-1,-1,-1,-1,-1,-1,-1,-1,-1],"split_conditions":[3E0,1.1E1,4E0,6.98718E1,2.86032E1,1.2E1,1.42E1,2.99E0,3.31E0,1.05E3,3.6E3,3.014E3,2.943E0,6.3E1,2.32E2,3.4647666E-2,6.0343664E-2,-1.0758728E-2,4.330511E-2,-1.8935151E-2,3.8371664E-2,-3.0216966E-2,1.5137756E-2,-2.3718918E-2,4.2785905E-2,-1.379235E-2,3.182321E-2,5.883409E-3,-3.3377554E-2,-2.2756321E-2,2.8190112E-2],"split_indices":[1,9,1,5,5,2,2,3,3,8,8,8,3,0,7,0,0,0,0,0,0,0,0,0,0,0,0,0,0,0,0],"split_type":[0,0,0,0,0,0,0,0,0,0,0,0,0,0,0,0,0,0,0,0,0,0,0,0,0,0,0,0,0,0,0],"sum_hessian":[7.8108154E2,4.1170676E2,3.6937482E2,3.2794025E2,8.376652E1,1.2523089E2,2.4414394E2,2.7240503E2,5.5535217E1,1.2223771E1,7.154274E1,7.199566E1,5.323523E1,2.1854912E2,2.5594805E1,8.411061E1,1.882944E2,3.9028267E1,1.650695E1,3.6038713E0,8.6199E0,6.8939865E1,2.6028812E0,6.698663E1,5.0090294E0,1.5189686E1,3.8045544E1,7.9580526E0,2.1059108E2,1.6027483E1,9.567321E0],"tree_param":{"num_deleted":"0","num_feature":"10","num_nodes":"31","size_leaf_vector":"1"}},{"base_weights":[-2.3390459E-1,-4.8417258E-1,6.533625E-1,-5.9238386E-1,4.9391723E-1,9.5606315E-1,1.1452745E-1,-6.769064E-1,-3.9046296E-1,7.252555E-1,-3.3184927E-2,1.5088819E-1,1.0647064E0,-2.90298E-1,7.9150814E-1,6.1207665E-3,-3.4093197E-2,-7.981077E-3,-3.151402E-2,-2.5997445E-2,3.9665733E-2,-2.2165058E-2,2.558451E-2,5.5394035E-2,-1.4664334E-2,-2.907736E-2,-2.7152996E-3,4.4207517E-2,-2.137889E-2],"categories":[],"categories_nodes":[],"categories_segments":[],"categories_sizes":[],"default_left":[0,0,0,0,0,0,0,0,0,0,0,0,0,0,0,0,0,0,0,0,0,0,0,0,0,0,0,0,0],"id":8,"left_children":[1,3,5,7,9,11,13,15,17,19,-1,21,23,25,27,-1,-1,-1,-1,-1,-1,-1,-1,-1,-1,-1,-1,-1,-1],"loss_changes":[1.7055286E2,6.3643204E1,2.7470703E1,8.941208E0,1.6594776E1,9.298622E0,1.721026E1,1.5847473E0,8.84116E0,4.7028866E0,0E0,3.2327619E0,5.9014664E0,2.6836934E0,3.0269394E0,0E0,0E0,0E0,0E0,0E0,0E0,0E0,0E0,0E0,0E0,0E0,0E0,0E0,0E0],"parents":[2147483647,0,0,1,1,2,2,3,3,4,4,5,5,6,6,7,7,8,8,9,9,11,11,12,12,13,13,14,14],"right_children":[2,4,6,8,10,12,14,16,18,20,-1,22,24,26,28,-1,-1,-1,-1,-1,-1,-1,-1,-1,-1,-1,-1,-1,-1],"split_conditions":[1.1E1,2.26E0,6.9E1,8E0,8.4E1,2.77548E1,2.1131E0,1.05E2,3E0,4E0,-3.3184927E-2,1.2E1,1.3713527E2,9.7519E-1,3.73E0,6.1207665E-3,-3.4093197E-2,-7.981077E-3,-3.151402E-2,-2.5997445E-2,3.9665733E-2,-2.2165058E-2,2.558451E-2,5.5394035E-2,-1.4664334E-2,-2.907736E-2,-2.7152996E-3,4.4207517E-2,-2.137889E-2],"split_indices":[9,4,0,9,0,5,4,8,1,9,0,9,6,4,3,0,0,0,0,0,0,0,0,0,0,0,0,0,0],"split_type":[0,0,0,0,0,0,0,0,0,0,0,0,0,0,0,0,0,0,0,0,0,0,0,0,0,0,0,0,0],"sum_hessian":[7.656427E2,5.9754877E2,1.6809395E2,5.3837933E2,5.9169426E1,1.0713471E2,6.095924E1,3.7785837E2,1.6052098E2,4.96257E1,9.543723E0,1.302119E1,9.4113525E1,3.8504967E1,2.2454271E1,2.1830566E0,3.756753E2,8.263982E1,7.788116E1,2.2277277E0,4.7397976E1,4.8331037E0,8.188086E0,9.1392105E1,2.7214198E0,1.6579336E1,2.192563E1,2.1123755E1,1.330518E0],"tree_param":{"num_deleted":"0","num_feature":"10","num_nodes":"29","size_leaf_vector":"1"}},{"base_weights":[9.603062E-2,-5.4331344E-1,7.209667E-1,-5.8193475E-1,1.3776948E-1,7.4102126E-2,8.611059E-1,-6.551513E-1,-2.693225E-1,-2.6546884E-1,6.197023E-1,3.720884E-1,-3.896909E-1,9.3317914E-1,7.971421E-2,6.1747367E-3,-3.3072736E-2,1.7455386E-2,-2.3489354E-2,-2.3890665E-2,4.1249827E-2,4.9639385E-2,-2.4957247E-2,3.0651778E-2,-2.3663105E-2,-2.6502365E-2,1.1468424E-2,3.2313388E-2,5.359575E-2,-1.947672E-2,1.6692756E-2],"categories":[],"categories_nodes":[],"categories_segments":[],"categories_sizes":[],"default_left":[0,0,0,0,0,0,0,0,0,0,0,0,0,0,0,0,0,0,0,0,0,0,0,0,0,0,0,0,0,0,0],"id":9,"left_children":[1,3,5,7,9,11,13,15,17,19,21,23,25,27,29,-1,-1,-1,-1,-1,-1,-1,-1,-1,-1,-1,-1,-1,-1,-1,-1],"loss_changes":[3.0747647E2,1.0088448E1,3.5208374E1,8.069183E0,4.2894754E0,9.871744E0,1.7931335E1,1.5108871E0,8.849743E0,3.2322905E0,4.657054E0,9.122039E0,2.5561132E0,1.09552E1,3.4802775E0,0E0,0E0,0E0,0E0,0E0,0E0,0E0,0E0,0E0,0E0,0E0,0E0,0E0,0E0,0E0,0E0],"parents":[2147483647,0,0,1,1,2,2,3,3,4,4,5,5,6,6,7,7,8,8,9,9,10,10,11,11,12,12,13,13,14,14],"right_children":[2,4,6,8,10,12,14,16,18,20,22,24,26,28,30,-1,-1,-1,-1,-1,-1,-1,-1,-1,-1,-1,-1,-1,-1,-1,-1],"split_conditions":[3E0,1.1095514E2,6.6E1,6E1,2E0,1.22E1,1.3E1,5.1E0,9.6E0,3.653635E2,3.31E0,1.04232E2,5.7643272E1,7.4E1,3.9698887E1,6.1747367E-3,-3.3072736E-2,1.7455386E-2,-2.3489354E-2,-2.3890665E-2,4.1249827E-2,4.9639385E-2,-2.4957247E-2,3.0651778E-2,-2.3663105E-2,-2.6502365E-2,1.1468424E-2,3.2313388E-2,5.359575E-2,-1.947672E-2,1.6692756E-2],"split_indices":[1,6,0,0,1,2,9,2,2,6,3,5,6,0,6,0,0,0,0,0,0,0,0,0,0,0,0,0,0,0,0],"split_type":[0,0,0,0,0,0,0,0,0,0,0,0,0,0,0,0,0,0,0,0,0,0,0,0,0,0,0,0,0,0,0],"sum_hessian":[7.675782E2,3.7947992E2,3.8809827E2,3.5925372E2,2.0226183E1,6.937963E1,3.1871863E2,2.9019238E2,6.906133E1,1.1256722E1,8.969461E0,4.2360687E1,2.7018946E1,2.916257E2,2.7092932E1,2.1810508E0,2.8801135E2,1.6724623E1,5.2336708E1,9.892248E0,1.3644743E0,6.8109756E0,2.158486E0,3.31787E1,9.181989E0,2.2142473E1,4.876472E0,9.689704E1,1.9472867E2,9.331112E0,1.776182E1],"tree_param":{"num_deleted":"0","num_feature":"10","num_nodes":"31","size_leaf_vector":"1"}},{"base_weights":[1.4906713E-1,6.0400057E-1,-3.8154438E-1,8.980263E-1,-2.2985147E-1,-3.6847144E-2,-5.6207365E-1,1.042755E0,9.774043E-2,4.6107557E-1,-3.9604875E-1,-3.417027E-1,3.7221622E-1,-6.2291014E-1,-3.731355E-2,3.6117364E-2,5.8986355E-2,2.5039708E-2,-2.969454E-2,-2.7646774E-3,4.5277487E-2,6.3918056E-3,-2.7408397E-2,-2.1573696E-2,3.9445654E-2,-1.2357502E-2,3.0285824E-2,3.4470696E-4,-3.2390457E-2,2.2447206E-2,-2.8994918E-2],"categories":[],"categories_nodes":[],"categories_segments":[],"categories_sizes":[],"default_left":[0,0,0,0,0,0,0,0,0,0,0,0,0,0,0,0,0,0,0,0,0,0,0,0,0,0,0,0,0,0,0],"id":10,"left_children":[1,3,5,7,9,11,13,15,17,19,21,23,25,27,29,-1,-1,-1,-1,-1,-1,-1,-1,-1,-1,-1,-1,-1,-1,-1,-1],"loss_changes":[1.861991E2,1.0199403E2,2.2146946E1,3.547232E1,1.27020035E1,1.5529974E1,7.438156E0,1.055835E1,1.371764E1,5.008046E0,7.1167707E0,7.576356E0,7.846643E0,3.2877884E0,6.947108E0,0E0,0E0,0E0,0E0,0E0,0E0,0E0,0E0,0E0,0E0,0E0,0E0,0E0,0E0,0E0,0E0],"parents":[2147483647,0,0,1,1,2,2,3,3,4,4,5,5,6,6,7,7,8,8,9,9,10,10,11,11,12,12,13,13,14,14],"right_children":[2,4,6,8,10,12,14,16,18,20,22,24,26,28,30,-1,-1,-1,-1,-1,-1,-1,-1,-1,-1,-1,-1,-1,-1,-1,-1],"split_conditions":[3E0,1E1,4E0,6.98718E1,3.1512E1,1.2E1,3.77E0,2.99E0,8E0,3.14E0,1.1E1,3.014E3,2.943E0,6.3E1,5E0,3.6117364E-2,5.8986355E-2,2.5039708E-2,-2.969454E-2,-2.7646774E-3,4.5277487E-2,6.3918056E-3,-2.7408397E-2,-2.1573696E-2,3.9445654E-2,-1.2357502E-2,3.0285824E-2,3.4470696E-4,-3.2390457E-2,2.2447206E-2,-2.8994918E-2],"split_indices":[1,9,1,5,5,2,3,3,9,3,9,8,3,0,1,0,0,0,0,0,0,0,0,0,0,0,0,0,0,0,0],"split_type":[0,0,0,0,0,0,0,0,0,0,0,0,0,0,0,0,0,0,0,0,0,0,0,0,0,0,0,0,0,0,0],"sum_hessian":[7.6939813E2,4.1416492E2,3.5523325E2,3.0613965E2,1.08025276E2,1.2251356E2,2.3271968E2,2.5899786E2,4.7141785E1,2.0602179E1,8.74231E1,7.0292534E1,5.2221027E1,2.0837527E2,2.4344402E1,7.944117E1,1.7955669E2,2.9958908E1,1.7182877E1,9.935352E0,1.0666826E1,1.970848E1,6.771462E1,6.5694725E1,4.5978074E0,1.4281219E1,3.7939808E1,7.952214E0,2.0042307E2,1.2929621E1,1.1414782E1],"tree_param":{"num_deleted":"0","num_feature":"10","num_nodes":"31","size_leaf_vector":"1"}},{"base_weights":[-2.369902E-1,-4.8234716E-1,6.059616E-1,-5.8265376E-1,4.471968E-1,2.265532E-1,1.0003939E0,-6.708544E-1,-3.7108415E-1,7.4352443E-1,-3.8201153E-1,6.2680215E-1,-3.0477956E-1,1.1210474E0,3.8365206E-1,1.2736951E-2,-3.379479E-2,-6.964943E-3,-3.1416044E-2,-2.8183231E-2,4.2945143E-2,8.6031074E-4,-3.245232E-2,3.4538133E-3,4.219532E-2,-3.3234786E-2,-7.896054E-3,5.723026E-2,-1.474542E-3,-2.944814E-2,3.446852E-2],"categories":[],"categories_nodes":[],"categories_segments":[],"categories_sizes":[],"default_left":[0,0,0,0,0,0,0,0,0,0,0,0,0,0,0,0,0,0,0,0,0,0,0,0,0,0,0,0,0,0,0],"id":11,"left_children":[1,3,5,7,9,11,13,15,17,19,21,23,25,27,29,-1,-1,-1,-1,-1,-1,-1,-1,-1,-1,-1,-1,-1,-1,-1,-1],"loss_changes":[1.57388E2,5.51671E1,2.5466152E1,9.677628E0,1.4516449E1,1.9076107E1,5.811821E0,1.918335E0,9.3779545E0,6.9712353E0,1.7072642E0,6.114086E0,1.9472485E0,1.9212265E0,4.9391527E0,0E0,0E0,0E0,0E0,0E0,0E0,0E0,0E0,0E0,0E0,0E0,0E0,0E0,0E0,0E0,0E0],"parents":[2147483647,0,0,1,1,2,2,3,3,4,4,5,5,6,6,7,7,8,8,9,9,10,10,11,11,12,12,13,13,14,14],"right_children":[2,4,6,8,10,12,14,16,18,20,22,24,26,28,30,-1,-1,-1,-1,-1,-1,-1,-1,-1,-1,-1,-1,-1,-1,-1,-1],"split_conditions":[1.1E1,2.26E0,1.5594E0,8E0,7.7E1,6.6E1,7.9E1,1.05E2,3E0,2.61792E1,8.4E1,2.9088E1,7.5484E-1,4.215E0,8.2E1,1.2736951E-2,-3.379479E-2,-6.964943E-3,-3.1416044E-2,-2.8183231E-2,4.2945143E-2,8.6031074E-4,-3.245232E-2,3.4538133E-3,4.219532E-2,-3.3234786E-2,-7.896054E-3,5.723026E-2,-1.474542E-3,-2.944814E-2,3.446852E-2],"split_indices":[9,4,4,9,0,0,0,8,1,5,0,5,4,3,0,0,0,0,0,0,0,0,0,0,0,0,0,0,0,0,0],"split_type":[0,0,0,0,0,0,0,0,0,0,0,0,0,0,0,0,0,0,0,0,0,0,0,0,0,0,0,0,0,0,0],"sum_hessian":[7.5856195E2,5.878771E2,1.7068488E2,5.3095514E2,5.69219E1,8.78018E1,8.288307E1,3.7320145E2,1.5775371E2,4.2011806E1,1.4910095E1,4.997576E1,3.7826046E1,6.863775E1,1.4245323E1,1.7533989E0,3.7144806E2,8.379292E1,7.396079E1,3.0922747E0,3.891953E1,6.35096E0,8.559135E0,1.4372351E1,3.5603413E1,9.9398E0,2.7886246E1,6.726561E1,1.3721378E0,3.185251E0,1.1060072E1],"tree_param":{"num_deleted":"0","num_feature":"10","num_nodes":"31","size_leaf_vector":"1"}},{"base_weights":[1.0285699E-1,-5.2844805E-1,6.856539E-1,-6.1918026E-1,-1.7196134E-1,3.7415394E-1,9.3440676E-1,-6.3475555E-1,6.0720736E-1,5.6845653E-1,-4.5476672E-1,4.895136E-1,-3.7601876E-1,1.0038434E0,1.2827443E-1,-1.3634301E-2,-3.232853E-2,1.0940759E-2,4.0514447E-2,3.8862344E-2,-2.7091606E-2,-2.6932165E-2,-7.076124E-3,3.7991416E-2,2.7057219E-3,-7.759192E-3,-3.2847494E-2,5.1575422E-2,5.5337357E-3,1.8967913E-2,-2.3498548E-2],"categories":[],"categories_nodes":[],"categories_segments":[],"categories_sizes":[],"default_left":[0,0,0,0,0,0,0,0,0,0,0,0,0,0,0,0,0,0,0,0,0,0,0,0,0,0,0,0,0,0,0],"id":12,"left_children":[1,3,5,7,9,11,13,15,17,19,21,23,25,27,29,-1,-1,-1,-1,-1,-1,-1,-1,-1,-1,-1,-1,-1,-1,-1,-1],"loss_changes":[2.8200708E2,1.179715E1,3.0527023E1,5.9816284E0,1.6182785E1,1.5639385E1,1.2235336E1,1.0633621E0,1.528076E-1,5.3967395E0,1.3842239E0,1.8227894E1,1.409869E0,4.907318E0,2.9817622E0,0E0,0E0,0E0,0E0,0E0,0E0,0E0,0E0,0E0,0E0,0E0,0E0,0E0,0E0,0E0,0E0],"parents":[2147483647,0,0,1,1,2,2,3,3,4,4,5,5,6,6,7,7,8,8,9,9,10,10,11,11,12,12,13,13,14,14],"right_children":[2,4,6,8,10,12,14,16,18,20,22,24,26,28,30,-1,-1,-1,-1,-1,-1,-1,-1,-1,-1,-1,-1,-1,-1,-1,-1],"split_conditions":[3E0,6E1,7.4E1,2.3331801E2,9.6E0,2.7007E0,1.3E1,5.94E1,3.653635E2,1.7176E0,7.073735E1,1.22E1,9.7E0,4.62E2,1.24E1,-1.3634301E-2,-3.232853E-2,1.0940759E-2,4.0514447E-2,3.8862344E-2,-2.7091606E-2,-2.6932165E-2,-7.076124E-3,3.7991416E-2,2.7057219E-3,-7.759192E-3,-3.2847494E-2,5.1575422E-2,5.5337357E-3,1.8967913E-2,-2.3498548E-2],"split_indices":[1,0,0,6,2,4,9,7,6,4,6,2,2,7,2,0,0,0,0,0,0,0,0,0,0,0,0,0,0,0,0],"split_type":[0,0,0,0,0,0,0,0,0,0,0,0,0,0,0,0,0,0,0,0,0,0,0,0,0,0,0,0,0,0,0],"sum_hessian":[7.6449994E2,3.6702237E2,3.974776E2,2.919731E2,7.504925E1,1.7759227E2,2.1988531E2,2.8878787E2,3.1852307E0,2.0463451E1,5.45858E1,1.5422362E2,2.3368654E1,2.0222157E2,1.7663733E1,9.886877E0,2.78901E2,1.8069413E0,1.3782896E0,1.7476877E1,2.9865746E0,4.248905E1,1.2096748E1,9.469051E1,5.9533108E1,1.3952911E1,9.415743E0,1.9599591E2,6.2256665E0,1.2699591E1,4.964142E0],"tree_param":{"num_deleted":"0","num_feature":"10","num_nodes":"31","size_leaf_vector":"1"}},{"base_weights":[1.1705596E-1,5.33658E-1,-3.767775E-1,8.1493306E-1,-2.4444883E-1,-3.3989128E-2,-5.5452466E-1,9.5945907E-1,4.1281477E-2,2.346178E-1,-4.888149E-1,-3.2268652E-1,3.5443643E-1,-6.143483E-1,-7.894111E-2,2.4444124E-2,5.228542E-2,2.0679614E-2,-2.747261E-2,3.816011E-2,-3.0049074E-3,-9.967169E-3,-3.264232E-2,-2.1147192E-2,4.0703785E-2,2.741377E-2,-1.7558102E-2,2.0226408E-3,-3.2172665E-2,-1.5013506E-2,4.432067E-2],"categories":[],"categories_nodes":[],"categories_segments":[],"categories_sizes":[],"default_left":[0,0,0,0,0,0,0,0,0,0,0,0,0,0,0,0,0,0,0,0,0,0,0,0,0,0,0,0,0,0,0],"id":13,"left_children":[1,3,5,7,9,11,13,15,17,19,21,23,25,27,29,-1,-1,-1,-1,-1,-1,-1,-1,-1,-1,-1,-1,-1,-1,-1,-1],"loss_changes":[1.6055292E2,9.281789E1,2.1747524E1,3.474034E1,1.3358309E1,1.3913019E1,6.64283E0,1.0124481E1,1.1225538E1,6.1040573E0,3.442398E0,8.448701E0,7.4333425E0,4.004593E0,6.1260247E0,0E0,0E0,0E0,0E0,0E0,0E0,0E0,0E0,0E0,0E0,0E0,0E0,0E0,0E0,0E0,0E0],"parents":[2147483647,0,0,1,1,2,2,3,3,4,4,5,5,6,6,7,7,8,8,9,9,10,10,11,11,12,12,13,13,14,14],"right_children":[2,4,6,8,10,12,14,16,18,20,22,24,26,28,30,-1,-1,-1,-1,-1,-1,-1,-1,-1,-1,-1,-1,-1,-1,-1,-1],"split_conditions":[3E0,1E1,4E0,6.98718E1,9.6502E-1,1.21E1,1.42E1,8.99E0,8E0,4.1252552E1,1.2E1,3.014E3,1.1E1,6.3E1,3.02E2,2.4444124E-2,5.228542E-2,2.0679614E-2,-2.747261E-2,3.816011E-2,-3.0049074E-3,-9.967169E-3,-3.264232E-2,-2.1147192E-2,4.0703785E-2,2.741377E-2,-1.7558102E-2,2.0226408E-3,-3.2172665E-2,-1.5013506E-2,4.432067E-2],"split_indices":[1,9,1,5,4,2,2,2,9,6,9,8,9,0,7,0,0,0,0,0,0,0,0,0,0,0,0,0,0,0,0],"split_type":[0,0,0,0,0,0,0,0,0,0,0,0,0,0,0,0,0,0,0,0,0,0,0,0,0,0,0,0,0,0,0],"sum_hessian":[7.784208E2,4.2218298E2,3.562378E2,3.1005502E2,1.1212798E2,1.2205121E2,2.341866E2,2.6104834E2,4.9006657E1,3.7888836E1,7.423914E1,7.011068E1,5.1940533E1,2.0776062E2,2.6425978E1,4.146785E1,2.195805E2,3.0244736E1,1.8761923E1,1.2993992E1,2.4894846E1,2.7653467E1,4.658568E1,6.500543E1,5.1052456E0,4.092167E1,1.1018862E1,8.825088E0,1.9893553E2,2.205771E1,4.3682675E0],"tree_param":{"num_deleted":"0","num_feature":"10","num_nodes":"31","size_leaf_vector":"1"}},{"base_weights":[-2.157089E-1,-4.640202E-1,5.959094E-1,-5.7152593E-1,4.3575364E-1,2.4421784E-1,9.5469046E-1,-6.612799E-1,-3.5836706E-1,6.285899E-1,-3.2061003E-2,6.32717E-1,-2.7613342E-1,1.071873E0,4.2173603E-1,6.40271E-3,-3.3323206E-2,-5.8949045E-3,-3.0837556E-2,7.552522E-3,4.1890655E-2,1.6317259E-3,4.1266996E-2,-2.6539493E-2,-1.2140595E-3,5.5281848E-2,1.5101093E-2,-1.5380439E-2,3.7254665E-2],"categories":[],"categories_nodes":[],"categories_segments":[],"categories_sizes":[],"default_left":[0,0,0,0,0,0,0,0,0,0,0,0,0,0,0,0,0,0,0,0,0,0,0,0,0,0,0,0,0],"id":14,"left_children":[1,3,5,7,9,11,13,15,17,19,-1,21,23,25,27,-1,-1,-1,-1,-1,-1,-1,-1,-1,-1,-1,-1,-1,-1],"loss_changes":[1.5005957E2,5.5353043E1,2.1791843E1,9.50679E0,1.3147703E1,1.826577E1,4.922737E0,1.5470428E0,9.43922E0,5.124094E0,0E0,5.9306164E0,2.4852002E0,1.4830246E0,4.276339E0,0E0,0E0,0E0,0E0,0E0,0E0,0E0,0E0,0E0,0E0,0E0,0E0,0E0,0E0],"parents":[2147483647,0,0,1,1,2,2,3,3,4,4,5,5,6,6,7,7,8,8,9,9,11,11,12,12,13,13,14,14],"right_children":[2,4,6,8,10,12,14,16,18,20,-1,22,24,26,28,-1,-1,-1,-1,-1,-1,-1,-1,-1,-1,-1,-1,-1,-1],"split_conditions":[1.1E1,2.26E0,1.582E0,8E0,8.4E1,6.6E1,7.8E1,1.05E2,3E0,8.10828E1,-3.2061003E-2,2.77548E1,9.7519E-1,6E0,8.2E1,6.40271E-3,-3.3323206E-2,-5.8949045E-3,-3.0837556E-2,7.552522E-3,4.1890655E-2,1.6317259E-3,4.1266996E-2,-2.6539493E-2,-1.2140595E-3,5.5281848E-2,1.5101093E-2,-1.5380439E-2,3.7254665E-2],"split_indices":[9,4,4,9,0,0,0,8,1,5,0,5,4,1,0,0,0,0,0,0,0,0,0,0,0,0,0,0,0],"split_type":[0,0,0,0,0,0,0,0,0,0,0,0,0,0,0,0,0,0,0,0,0,0,0,0,0,0,0,0,0],"sum_hessian":[7.4221484E2,5.68663E2,1.7355185E2,5.0829617E2,6.0366844E1,8.849055E1,8.50613E1,3.5620712E2,1.5208904E2,5.155251E1,8.814338E0,5.054055E1,3.7949993E1,6.890068E1,1.6160618E1,2.1695757E0,3.5403757E2,7.952977E1,7.2559265E1,1.6230139E1,3.532237E1,1.256523E1,3.7975323E1,1.831924E1,1.9630754E1,6.558796E1,3.3127227E0,4.978998E0,1.118162E1],"tree_param":{"num_deleted":"0","num_feature":"10","num_nodes":"29","size_leaf_vector":"1"}},{"base_weights":[1.0094498E-1,-5.205526E-1,6.5789515E-1,-6.031282E-1,-1.968797E-1,3.79084E-2,7.678072E-1,-6.2440723E-1,3.833181E-1,4.842833E-1,-4.5031264E-1,3.732471E-1,-3.4711987E-1,8.551489E-1,2.4467282E-1,1.4148061E-2,-3.15416E-2,-2.2852143E-2,3.7758768E-2,3.3872675E-2,-2.6630705E-2,1.017216E-3,-2.8192425E-2,3.2413192E-2,-2.1124115E-2,-2.2666654E-2,2.6076809E-2,3.3930052E-2,5.4224323E-2,2.8213272E-2,-9.214934E-3],"categories":[],"categories_nodes":[],"categories_segments":[],"categories_sizes":[],"default_left":[0,0,0,0,0,0,0,0,0,0,0,0,0,0,0,0,0,0,0,0,0,0,0,0,0,0,0,0,0,0,0],"id":15,"left_children":[1,3,5,7,9,11,13,15,17,19,21,23,25,27,29,-1,-1,-1,-1,-1,-1,-1,-1,-1,-1,-1,-1,-1,-1,-1,-1],"loss_changes":[2.6928366E2,9.710632E0,2.7923752E1,6.379616E0,1.3378878E1,8.240873E0,1.5708771E1,1.850029E0,2.4690294E0,4.5163894E0,3.0083132E0,7.7274833E0,2.9824152E0,1.1335312E1,7.1293564E0,0E0,0E0,0E0,0E0,0E0,0E0,0E0,0E0,0E0,0E0,0E0,0E0,0E0,0E0,0E0,0E0],"parents":[2147483647,0,0,1,1,2,2,3,3,4,4,5,5,6,6,7,7,8,8,9,9,10,10,11,11,12,12,13,13,14,14],"right_children":[2,4,6,8,10,12,14,16,18,20,22,24,26,28,30,-1,-1,-1,-1,-1,-1,-1,-1,-1,-1,-1,-1,-1,-1,-1,-1],"split_conditions":[3E0,6E1,6.5E1,1.6088495E2,9.31E0,1.086E1,2.26E0,5.1E0,4.3E1,1.7176E0,1.054E2,2.7007E0,7.88008E1,5E0,1.1E1,1.4148061E-2,-3.15416E-2,-2.2852143E-2,3.7758768E-2,3.3872675E-2,-2.6630705E-2,1.017216E-3,-2.8192425E-2,3.2413192E-2,-2.1124115E-2,-2.2666654E-2,2.6076809E-2,3.3930052E-2,5.4224323E-2,2.8213272E-2,-9.214934E-3],"split_indices":[1,0,0,6,2,2,4,2,0,4,7,4,6,1,9,0,0,0,0,0,0,0,0,0,0,0,0,0,0,0,0],"split_type":[0,0,0,0,0,0,0,0,0,0,0,0,0,0,0,0,0,0,0,0,0,0,0,0,0,0,0,0,0,0,0],"sum_hessian":[7.7596515E2,3.667624E2,4.0920273E2,2.9152496E2,7.5237404E1,6.1822437E1,3.473803E2,2.8572842E2,5.7965465E0,2.0155006E1,5.5082397E1,3.3059772E1,2.8762665E1,2.9713623E2,5.0244072E1,1.7063099E0,2.8402213E2,1.7078627E0,4.088684E0,1.7218061E1,2.9369457E0,1.0864595E1,4.4217804E1,2.4706228E1,8.353544E0,2.6054966E1,2.7076988E0,1.7012791E2,1.27008316E2,2.8612085E1,2.1631987E1],"tree_param":{"num_deleted":"0","num_feature":"10","num_nodes":"31","size_leaf_vector":"1"}},{"base_weights":[1.23602234E-1,5.373322E-1,-3.6209375E-1,7.4299634E-1,-3.5980695E-1,-2.6907388E-2,-5.4480386E-1,8.849143E-1,1.9815063E-2,4.8376334E-1,-5.366829E-1,-3.8907966E-1,2.724613E-1,-6.0588187E-1,-6.795854E-2,2.9511565E-2,5.0944824E-2,-1.9061316E-2,2.8391901E-2,3.0766955E-2,-2.1648347E-2,-2.8876865E-2,1.6436374E-2,-2.5287164E-2,3.7731897E-2,2.2538347E-2,-2.3221634E-2,4.9607403E-4,-3.1558488E-2,2.4437984E-2,-2.912025E-2],"categories":[],"categories_nodes":[],"categories_segments":[],"categories_sizes":[],"default_left":[0,0,0,0,0,0,0,0,0,0,0,0,0,0,0,0,0,0,0,0,0,0,0,0,0,0,0,0,0,0,0],"id":16,"left_children":[1,3,5,7,9,11,13,15,17,19,21,23,25,27,29,-1,-1,-1,-1,-1,-1,-1,-1,-1,-1,-1,-1,-1,-1,-1,-1],"loss_changes":[1.5326822E2,7.624071E1,2.1481419E1,3.4394608E1,1.1817749E1,1.3646218E1,6.5736237E0,1.0464218E1,1.2530187E1,1.9494042E0,2.4706802E0,7.9772387E0,9.269856E0,3.1395035E0,7.9929833E0,0E0,0E0,0E0,0E0,0E0,0E0,0E0,0E0,0E0,0E0,0E0,0E0,0E0,0E0,0E0,0E0],"parents":[2147483647,0,0,1,1,2,2,3,3,4,4,5,5,6,6,7,7,8,8,9,9,10,10,11,11,12,12,13,13,14,14],"right_children":[2,4,6,8,10,12,14,16,18,20,22,24,26,28,30,-1,-1,-1,-1,-1,-1,-1,-1,-1,-1,-1,-1,-1,-1,-1,-1],"split_conditions":[3E0,1.1E1,4E0,6.98718E1,3.04818E1,1.1E1,3.77E0,2.99E0,2.82E2,1.4E1,3.6E3,3.014E3,1.1E1,6.3E1,5E0,2.9511565E-2,5.0944824E-2,-1.9061316E-2,2.8391901E-2,3.0766955E-2,-2.1648347E-2,-2.8876865E-2,1.6436374E-2,-2.5287164E-2,3.7731897E-2,2.2538347E-2,-2.3221634E-2,4.9607403E-4,-3.1558488E-2,2.4437984E-2,-2.912025E-2],"split_indices":[1,9,1,5,5,2,3,3,7,9,8,8,9,0,1,0,0,0,0,0,0,0,0,0,0,0,0,0,0,0,0],"split_type":[0,0,0,0,0,0,0,0,0,0,0,0,0,0,0,0,0,0,0,0,0,0,0,0,0,0,0,0,0,0,0],"sum_hessian":[7.607614E2,4.1075882E2,3.5000262E2,3.342953E2,7.646352E1,1.2388314E2,2.2611948E2,2.7926782E2,5.5027477E1,1.2952831E1,6.351069E1,5.5925518E1,6.795763E1,2.002051E2,2.591439E1,8.897649E1,1.9029134E2,3.1950539E1,2.3076937E1,1.161459E1,1.338242E0,6.0965275E1,2.5454144E0,5.1255108E1,4.670411E0,5.5030277E1,1.2927345E1,7.9210777E0,1.9228401E2,1.2469841E1,1.34445505E1],"tree_param":{"num_deleted":"0","num_feature":"10","num_nodes":"31","size_leaf_vector":"1"}},{"base_weights":[-2.1909888E-1,-4.4303733E-1,4.9722722E-1,-2.4518895E-1,-5.821859E-1,7.360115E-1,-3.2215297E-2,6.7956275E-3,-5.1820946E-1,-4.0135482E-1,-6.386713E-1,5.095081E-1,1.0453405E0,-5.576211E-1,2.212448E-1,-1.506028E-2,2.3536501E-2,2.3734698E-2,-2.6700959E-2,-4.1136104E-3,-3.109607E-2,-3.3112872E-2,-1.7428506E-2,3.5506207E-2,-9.549121E-3,5.5317577E-2,2.6563978E-2,-1.1509367E-3,-3.2892797E-2,1.7454356E-2,-2.276687E-2],"categories":[],"categories_nodes":[],"categories_segments":[],"categories_sizes":[],"default_left":[0,0,0,0,0,0,0,0,0,0,0,0,0,0,0,0,0,0,0,0,0,0,0,0,0,0,0,0,0,0,0],"id":17,"left_children":[1,3,5,7,9,11,13,15,17,19,21,23,25,27,29,-1,-1,-1,-1,-1,-1,-1,-1,-1,-1,-1,-1,-1,-1,-1,-1],"loss_changes":[1.17460144E2,1.5200592E1,2.2089169E1,1.5954191E1,3.0783844E0,7.8981094E0,7.4754796E0,1.7511446E1,2.0005302E0,5.607133E0,1.4597397E0,1.0171555E1,9.776764E-1,9.628067E-1,3.4422054E0,0E0,0E0,0E0,0E0,0E0,0E0,0E0,0E0,0E0,0E0,0E0,0E0,0E0,0E0,0E0,0E0],"parents":[2147483647,0,0,1,1,2,2,3,3,4,4,5,5,6,6,7,7,8,8,9,9,10,10,11,11,12,12,13,13,14,14],"right_children":[2,4,6,8,10,12,14,16,18,20,22,24,26,28,30,-1,-1,-1,-1,-1,-1,-1,-1,-1,-1,-1,-1,-1,-1,-1,-1],"split_conditions":[1.6046E0,1.9E2,7.3E1,6.6E1,2.78E0,3.55611E0,2.147E0,9.4807E-1,4E1,5.7E1,1.3108E0,2.8E2,6.7E1,7.1E0,8.7E1,-1.506028E-2,2.3536501E-2,2.3734698E-2,-2.6700959E-2,-4.1136104E-3,-3.109607E-2,-3.3112872E-2,-1.7428506E-2,3.5506207E-2,-9.549121E-3,5.5317577E-2,2.6563978E-2,-1.1509367E-3,-3.2892797E-2,1.7454356E-2,-2.276687E-2],"split_indices":[4,7,0,0,3,4,4,4,7,0,4,7,0,2,0,0,0,0,0,0,0,0,0,0,0,0,0,0,0,0,0],"split_type":[0,0,0,0,0,0,0,0,0,0,0,0,0,0,0,0,0,0,0,0,0,0,0,0,0,0,0,0,0,0,0],"sum_hessian":[7.298627E2,5.563253E2,1.7353735E2,2.3085135E2,3.2547397E2,1.19328674E2,5.420869E1,1.2055765E2,1.1029369E2,7.939764E1,2.4607631E2,7.041502E1,4.8913647E1,1.7250181E1,3.6958508E1,7.266612E1,4.789153E1,1.2737304E0,1.09019966E2,3.3012745E1,4.6384895E1,2.2638745E2,1.9688862E1,5.472762E1,1.5687403E1,4.269433E1,6.2193203E0,2.9177907E0,1.4332391E1,3.1492033E1,5.4664755E0],"tree_param":{"num_deleted":"0","num_feature":"10","num_nodes":"31","size_leaf_vector":"1"}},{"base_weights":[8.1584394E-2,-5.0731677E-1,6.2272614E-1,-5.9579474E-1,-1.4186035E-1,3.2792154E-1,8.5176617E-1,-6.281545E-1,6.476867E-2,5.594697E-1,-3.969938E-1,5.514769E-1,-5.197355E-2,9.1623837E-1,3.1645533E-1,7.4033956E-3,-3.172953E-2,-2.2329455E-2,2.0607276E-2,3.6956485E-2,-2.5090238E-2,-1.0029126E-2,-2.972813E-2,3.5576344E-2,-1.0063203E-2,-8.509142E-3,3.765977E-2,4.7005456E-2,2.2668806E-3,3.2882217E-2,-9.922327E-4],"categories":[],"categories_nodes":[],"categories_segments":[],"categories_sizes":[],"default_left":[0,0,0,0,0,0,0,0,0,0,0,0,0,0,0,0,0,0,0,0,0,0,0,0,0,0,0,0,0,0,0],"id":18,"left_children":[1,3,5,7,9,11,13,15,17,19,21,23,25,27,29,-1,-1,-1,-1,-1,-1,-1,-1,-1,-1,-1,-1,-1,-1,-1,-1],"loss_changes":[2.4446724E2,1.1796249E1,2.6709686E1,6.3571854E0,1.3271569E1,1.5008974E1,7.451828E0,1.5017624E0,2.7964296E0,4.159245E0,1.9785519E0,1.35317E1,6.4346437E0,4.10849E0,2.9550369E0,0E0,0E0,0E0,0E0,0E0,0E0,0E0,0E0,0E0,0E0,0E0,0E0,0E0,0E0,0E0,0E0],"parents":[2147483647,0,0,1,1,2,2,3,3,4,4,5,5,6,6,7,7,8,8,9,9,10,10,11,11,12,12,13,13,14,14],"right_children":[2,4,6,8,10,12,14,16,18,20,22,24,26,28,30,-1,-1,-1,-1,-1,-1,-1,-1,-1,-1,-1,-1,-1,-1,-1,-1],"split_conditions":[3E0,6E1,7.4E1,1.1690525E2,9.31E0,1.22E1,2.56962E0,5.1E0,4.4E1,1.7176E0,3.28E0,2.56962E0,5E0,4.62E2,8.63E0,7.4033956E-3,-3.172953E-2,-2.2329455E-2,2.0607276E-2,3.6956485E-2,-2.5090238E-2,-1.0029126E-2,-2.972813E-2,3.5576344E-2,-1.0063203E-2,-8.509142E-3,3.765977E-2,4.7005456E-2,2.2668806E-3,3.2882217E-2,-9.922327E-4],"split_indices":[1,0,0,6,2,2,4,2,0,4,3,4,1,7,2,0,0,0,0,0,0,0,0,0,0,0,0,0,0,0,0],"split_type":[0,0,0,0,0,0,0,0,0,0,0,0,0,0,0,0,0,0,0,0,0,0,0,0,0,0,0,0,0,0,0],"sum_hessian":[7.651356E2,3.6642914E2,3.9870648E2,2.944997E2,7.1929436E1,1.7538922E2,2.2331725E2,2.807932E2,1.3706486E1,1.8868746E1,5.3060688E1,1.1012987E2,6.525935E1,1.986772E2,2.4640038E1,2.1281047E0,2.786651E2,5.4290385E0,8.277447E0,1.6396564E1,2.4721806E0,2.7618881E1,2.5441807E1,9.086471E1,1.9265162E1,5.7592644E1,7.6667128E0,1.9329953E2,5.3776727E0,1.1756796E1,1.2883242E1],"tree_param":{"num_deleted":"0","num_feature":"10","num_nodes":"31","size_leaf_vector":"1"}},{"base_weights":[1.2925094E-1,5.228493E-1,-3.5129863E-1,7.248097E-1,-3.6358312E-1,-3.4309912E-2,-5.252295E-1,8.597908E-1,8.225274E-2,3.2827637E-1,-5.170771E-1,-5.2519596E-1,1.1673482E-1,-5.9050184E-1,-1.6111484E-2,2.9953694E-2,5.0366897E-2,2.5715206E-2,-2.442425E-2,-1.9177204E-2,2.946319E-2,-2.8574253E-2,2.270856E-2,-3.1015847E-2,4.0742144E-2,-2.692498E-3,3.4221686E-2,-2.319548E-3,-3.0767888E-2,2.371811E-2,-2.8004175E-2],"categories":[],"categories_nodes":[],"categories_segments":[],"categories_sizes":[],"default_left":[0,0,0,0,0,0,0,0,0,0,0,0,0,0,0,0,0,0,0,0,0,0,0,0,0,0,0,0,0,0,0],"id":19,"left_children":[1,3,5,7,9,11,13,15,17,19,21,23,25,27,29,-1,-1,-1,-1,-1,-1,-1,-1,-1,-1,-1,-1,-1,-1,-1,-1],"loss_changes":[1.4502386E2,7.569927E1,1.902515E1,2.9723495E1,8.543847E0,9.214062E0,7.3995476E0,1.0312851E1,1.5229107E1,2.9995837E0,3.6904411E0,4.2309837E0,9.257564E0,2.6437378E0,7.2997103E0,0E0,0E0,0E0,0E0,0E0,0E0,0E0,0E0,0E0,0E0,0E0,0E0,0E0,0E0,0E0,0E0],"parents":[2147483647,0,0,1,1,2,2,3,3,4,4,5,5,6,6,7,7,8,8,9,9,10,10,11,11,12,12,13,13,14,14],"right_children":[2,4,6,8,10,12,14,16,18,20,22,24,26,28,30,-1,-1,-1,-1,-1,-1,-1,-1,-1,-1,-1,-1,-1,-1,-1,-1],"split_conditions":[3E0,1.1E1,4E0,6.9084E1,3.04818E1,2.66E0,3.77E0,3.05E0,8E0,9.24E2,3.6E3,3.333E3,3.07E2,6.3E1,5E0,2.9953694E-2,5.0366897E-2,2.5715206E-2,-2.442425E-2,-1.9177204E-2,2.946319E-2,-2.8574253E-2,2.270856E-2,-3.1015847E-2,4.0742144E-2,-2.692498E-3,3.4221686E-2,-2.319548E-3,-3.0767888E-2,2.371811E-2,-2.8004175E-2],"split_indices":[1,9,1,5,5,3,3,3,9,8,8,8,7,0,1,0,0,0,0,0,0,0,0,0,0,0,0,0,0,0,0],"split_type":[0,0,0,0,0,0,0,0,0,0,0,0,0,0,0,0,0,0,0,0,0,0,0,0,0,0,0,0,0,0,0],"sum_hessian":[7.647687E2,4.203716E2,3.443971E2,3.4251663E2,7.7854965E1,1.22442726E2,2.2195436E2,2.8277615E2,5.9740494E1,1.3929656E1,6.3925312E1,2.822762E1,9.421511E1,1.9659033E2,2.5364033E1,1.0402442E2,1.7875172E2,3.40576E1,2.5682896E1,3.6111023E0,1.0318554E1,6.0924026E1,3.0012832E0,2.6858212E1,1.369406E0,7.314216E1,2.107295E1,8.713484E0,1.8787685E2,1.3405183E1,1.195885E1],"tree_param":{"num_deleted":"0","num_feature":"10","num_nodes":"31","size_leaf_vector":"1"}},{"base_weights":[-2.2556287E-1,-4.5323357E-1,5.3483975E-1,-5.5123395E-1,3.4890413E-1,8.3737904E-1,1.2358987E-1,-6.356032E-1,-3.48143E-1,5.2652586E-1,-3.159828E-2,3.893466E-1,9.816606E-1,-2.802197E-1,7.063923E-1,2.1341993E-3,-3.2031037E-2,-8.350819E-3,-3.0657498E-2,1.4921044E-3,3.5961162E-2,2.796573E-2,-3.002905E-2,5.0737884E-2,-3.0898907E-5,-2.4798587E-2,1.5504713E-3,9.927682E-3,4.6520855E-2],"categories":[],"categories_nodes":[],"categories_segments":[],"categories_sizes":[],"default_left":[0,0,0,0,0,0,0,0,0,0,0,0,0,0,0,0,0,0,0,0,0,0,0,0,0,0,0,0,0],"id":20,"left_children":[1,3,5,7,9,11,13,15,17,19,-1,21,23,25,27,-1,-1,-1,-1,-1,-1,-1,-1,-1,-1,-1,-1,-1,-1],"loss_changes":[1.27715805E2,4.477997E1,2.1062908E1,8.446045E0,1.119824E1,5.9425964E0,1.7443535E1,1.2394867E0,7.129902E0,5.084526E0,0E0,4.6248856E0,2.3853302E0,2.9700892E0,3.259757E0,0E0,0E0,0E0,0E0,0E0,0E0,0E0,0E0,0E0,0E0,0E0,0E0,0E0,0E0],"parents":[2147483647,0,0,1,1,2,2,3,3,4,4,5,5,6,6,7,7,8,8,9,9,11,11,12,12,13,13,14,14],"right_children":[2,4,6,8,10,12,14,16,18,20,-1,22,24,26,28,-1,-1,-1,-1,-1,-1,-1,-1,-1,-1,-1,-1,-1,-1],"split_conditions":[1.1E1,2.26E0,6.4E1,8E0,8.4E1,9.718E-1,2.1131E0,1.05E2,6.7E1,8.10828E1,-3.159828E-2,2.41E2,4.4E0,1.3E1,8.32E0,2.1341993E-3,-3.2031037E-2,-8.350819E-3,-3.0657498E-2,1.4921044E-3,3.5961162E-2,2.796573E-2,-3.002905E-2,5.0737884E-2,-3.0898907E-5,-2.4798587E-2,1.5504713E-3,9.927682E-3,4.6520855E-2],"split_indices":[9,4,0,9,0,4,4,8,0,5,0,7,3,9,2,0,0,0,0,0,0,0,0,0,0,0,0,0,0],"split_type":[0,0,0,0,0,0,0,0,0,0,0,0,0,0,0,0,0,0,0,0,0,0,0,0,0,0,0,0,0],"sum_hessian":[7.3532367E2,5.662021E2,1.6912154E2,5.0483694E2,6.1365154E1,9.684244E1,7.22791E1,3.551633E2,1.4967365E2,5.234874E1,9.016416E0,2.4490742E1,7.23517E1,4.3002735E1,2.9276361E1,2.5528522E0,3.5261044E2,8.987573E1,5.9797916E1,1.4955447E1,3.739329E1,2.1273184E1,3.217557E0,6.996135E1,2.3903513E0,2.5046364E1,1.7956373E1,9.538952E0,1.973741E1],"tree_param":{"num_deleted":"0","num_feature":"10","num_nodes":"29","size_leaf_vector":"1"}},{"base_weights":[8.6600445E-2,-4.3645173E-1,6.600129E-1,-5.6808203E-1,-2.6070641E-2,7.2802866E-1,-4.3044552E-2,-5.9533936E-1,4.2567562E-2,4.931021E-1,-4.3317422E-1,4.266792E-1,8.6596656E-1,7.727101E-1,-2.637731E-1,1.5590856E-2,-3.0372337E-2,-1.1920121E-2,2.914401E-2,3.0056914E-2,-2.0206025E-2,-2.6575748E-2,9.253259E-3,3.2104902E-2,6.530874E-4,3.1131849E-2,4.704425E-2,5.0515383E-2,-5.2142716E-3,-2.9828975E-2,1.1136722E-2],"categories":[],"categories_nodes":[],"categories_segments":[],"categories_sizes":[],"default_left":[0,0,0,0,0,0,0,0,0,0,0,0,0,0,0,0,0,0,0,0,0,0,0,0,0,0,0,0,0,0,0],"id":21,"left_children":[1,3,5,7,9,11,13,15,17,19,21,23,25,27,29,-1,-1,-1,-1,-1,-1,-1,-1,-1,-1,-1,-1,-1,-1,-1,-1],"loss_changes":[2.2870448E2,2.153218E1,1.7423004E1,5.051422E0,2.090936E1,1.3417343E1,6.15044E0,3.3649597E0,2.239416E0,4.4598236E0,3.4674988E0,9.446804E0,3.54422E0,1.6238956E0,4.462119E0,0E0,0E0,0E0,0E0,0E0,0E0,0E0,0E0,0E0,0E0,0E0,0E0,0E0,0E0,0E0,0E0],"parents":[2147483647,0,0,1,1,2,2,3,3,4,4,5,5,6,6,7,7,8,8,9,9,10,10,11,11,12,12,13,13,14,14],"right_children":[2,4,6,8,10,12,14,16,18,20,22,24,26,28,30,-1,-1,-1,-1,-1,-1,-1,-1,-1,-1,-1,-1,-1,-1,-1,-1],"split_conditions":[6.6E1,6E1,1.3E1,1.1690525E2,1.07E1,7.3E1,9.7519E-1,5.3E0,2E0,1.3E1,7.88008E1,1.22E1,3.909513E1,7.9E1,5E0,1.5590856E-2,-3.0372337E-2,-1.1920121E-2,2.914401E-2,3.0056914E-2,-2.0206025E-2,-2.6575748E-2,9.253259E-3,3.2104902E-2,6.530874E-4,3.1131849E-2,4.704425E-2,5.0515383E-2,-5.2142716E-3,-2.9828975E-2,1.1136722E-2],"split_indices":[0,0,9,6,2,0,4,2,1,9,6,2,6,0,1,0,0,0,0,0,0,0,0,0,0,0,0,0,0,0,0],"split_type":[0,0,0,0,0,0,0,0,0,0,0,0,0,0,0,0,0,0,0,0,0,0,0,0,0,0,0,0,0,0,0],"sum_hessian":[7.605794E2,3.978812E2,3.626982E2,3.009627E2,9.691847E1,3.3067252E2,3.2025703E1,2.8812677E2,1.2835936E1,4.2503365E1,5.4415108E1,1.05117744E2,2.2555475E2,6.2876143E0,2.573809E1,3.4687967E0,2.84658E2,8.812226E0,4.0237093E0,3.823002E1,4.2733445E0,4.7068413E1,7.346698E0,6.8756065E1,3.6361683E1,5.5289494E1,1.7026526E2,4.827678E0,1.4599359E0,1.5148898E1,1.0589191E1],"tree_param":{"num_deleted":"0","num_feature":"10","num_nodes":"31","size_leaf_vector":"1"}},{"base_weights":[1.1821852E-1,4.918428E-1,-3.4580815E-1,6.8666446E-1,-3.448431E-1,-2.8806096E-2,-5.210866E-1,8.132829E-1,6.0687747E-2,3.4979576E-1,-4.9995744E-1,-3.0000386E-1,3.134384E-1,-5.841115E-1,9.115655E-3,2.566559E-2,4.7056112E-2,2.375394E-2,-2.2708593E-2,2.666226E-2,-2.5781855E-2,-2.7642677E-2,2.9453067E-2,-1.9967098E-2,3.9202478E-2,7.02265E-3,5.0204307E-2,-3.049682E-2,3.7913452E-4,-2.3842426E-2,2.2975E-2],"categories":[],"categories_nodes":[],"categories_segments":[],"categories_sizes":[],"default_left":[0,0,0,0,0,0,0,0,0,0,0,0,0,0,0,0,0,0,0,0,0,0,0,0,0,0,0,0,0,0,0],"id":22,"left_children":[1,3,5,7,9,11,13,15,17,19,21,23,25,27,29,-1,-1,-1,-1,-1,-1,-1,-1,-1,-1,-1,-1,-1,-1,-1,-1],"loss_changes":[1.3374814E2,6.9876434E1,1.9112614E1,2.7443558E1,8.940873E0,1.1568785E1,7.4109E0,1.0577667E1,1.289721E1,2.7261262E0,4.1804028E0,7.795754E0,6.447191E0,3.031517E0,5.5879045E0,0E0,0E0,0E0,0E0,0E0,0E0,0E0,0E0,0E0,0E0,0E0,0E0,0E0,0E0,0E0,0E0],"parents":[2147483647,0,0,1,1,2,2,3,3,4,4,5,5,6,6,7,7,8,8,9,9,10,10,11,11,12,12,13,13,14,14],"right_children":[2,4,6,8,10,12,14,16,18,20,22,24,26,28,30,-1,-1,-1,-1,-1,-1,-1,-1,-1,-1,-1,-1,-1,-1,-1,-1],"split_conditions":[3E0,1.1E1,4E0,6.86598E1,3.04818E1,1.21E1,1.42E1,2.99E0,8E0,1.4E1,3.6E3,3.014E3,3.126E2,4.026E0,3.3E0,2.566559E-2,4.7056112E-2,2.375394E-2,-2.2708593E-2,2.666226E-2,-2.5781855E-2,-2.7642677E-2,2.9453067E-2,-1.9967098E-2,3.9202478E-2,7.02265E-3,5.0204307E-2,-3.049682E-2,3.7913452E-4,-2.3842426E-2,2.2975E-2],"split_indices":[1,9,1,5,5,2,2,3,9,9,8,8,7,3,3,0,0,0,0,0,0,0,0,0,0,0,0,0,0,0,0],"split_type":[0,0,0,0,0,0,0,0,0,0,0,0,0,0,0,0,0,0,0,0,0,0,0,0,0,0,0,0,0,0,0],"sum_hessian":[7.694724E2,4.2622516E2,3.4324725E2,3.458691E2,8.035605E1,1.2262912E2,2.2061813E2,2.8743036E2,5.8438732E1,1.4439129E1,6.591692E1,6.848466E1,5.4144466E1,1.9708861E2,2.3529522E1,8.738932E1,2.0004105E2,3.242131E1,2.6017422E1,1.22304325E1,2.2086964E0,6.333303E1,2.583889E0,6.331441E1,5.1702447E0,4.426168E1,9.882786E0,1.8881673E2,8.271874E0,1.1289454E1,1.22400675E1],"tree_param":{"num_deleted":"0","num_feature":"10","num_nodes":"31","size_leaf_vector":"1"}},{"base_weights":[-2.0723698E-1,-4.412569E-1,5.399581E-1,-5.4411703E-1,3.9982548E-1,2.2715615E-1,8.4151876E-1,-6.332842E-1,-3.404034E-1,5.672795E-1,-3.0903468E-2,5.452325E-1,-2.6173252E-1,9.4585997E-1,2.8764358E-1,2.3543942E-3,-3.1926066E-2,-5.790004E-3,-2.9552612E-2,9.914808E-3,3.8189266E-2,4.3175565E-3,3.541636E-2,-3.190963E-2,-4.39956E-3,4.837376E-2,-4.422323E-3,-2.8768903E-2,2.7678622E-2],"categories":[],"categories_nodes":[],"categories_segments":[],"categories_sizes":[],"default_left":[0,0,0,0,0,0,0,0,0,0,0,0,0,0,0,0,0,0,0,0,0,0,0,0,0,0,0,0,0],"id":23,"left_children":[1,3,5,7,9,11,13,15,17,19,-1,21,23,25,27,-1,-1,-1,-1,-1,-1,-1,-1,-1,-1,-1,-1,-1,-1],"loss_changes":[1.2697517E2,4.801497E1,1.615733E1,8.734177E0,1.0710559E1,1.3584629E1,4.806278E0,1.2470093E0,8.497931E0,3.6707573E0,0E0,3.882472E0,2.216569E0,1.72892E0,3.845206E0,0E0,0E0,0E0,0E0,0E0,0E0,0E0,0E0,0E0,0E0,0E0,0E0,0E0,0E0],"parents":[2147483647,0,0,1,1,2,2,3,3,4,4,5,5,6,6,7,7,8,8,9,9,11,11,12,12,13,13,14,14],"right_children":[2,4,6,8,10,12,14,16,18,20,-1,22,24,26,28,-1,-1,-1,-1,-1,-1,-1,-1,-1,-1,-1,-1,-1,-1],"split_conditions":[1.1E1,2.26E0,1.5594E0,8E0,8.4E1,6.6E1,7.9E1,1.05E2,3E0,8E0,-3.0903468E-2,2.9088E1,7.5484E-1,4.026E0,8.2E1,2.3543942E-3,-3.1926066E-2,-5.790004E-3,-2.9552612E-2,9.914808E-3,3.8189266E-2,4.3175565E-3,3.541636E-2,-3.190963E-2,-4.39956E-3,4.837376E-2,-4.422323E-3,-2.8768903E-2,2.7678622E-2],"split_indices":[9,4,4,9,0,0,0,8,1,9,0,5,4,3,0,0,0,0,0,0,0,0,0,0,0,0,0,0,0],"split_type":[0,0,0,0,0,0,0,0,0,0,0,0,0,0,0,0,0,0,0,0,0,0,0,0,0,0,0,0,0],"sum_hessian":[7.2379675E2,5.514829E2,1.7231386E2,4.917032E2,5.9779724E1,8.544107E1,8.687279E1,3.4053802E2,1.5116516E2,5.171481E1,8.064918E0,5.1693474E1,3.3747593E1,7.250609E1,1.4366696E1,2.540176E0,3.3799786E2,8.0495834E1,7.0669334E1,1.86689E1,3.304591E1,1.3956126E1,3.773735E1,9.812589E0,2.3935005E1,7.108515E1,1.4209422E0,3.1100297E0,1.1256667E1],"tree_param":{"num_deleted":"0","num_feature":"10","num_nodes":"29","size_leaf_vector":"1"}},{"base_weights":[8.2400985E-2,-4.9499348E-1,5.772973E-1,-5.822204E-1,-1.47098E-1,2.705513E-1,7.707314E-1,-5.976663E-1,5.6322676E-1,4.336352E-1,-3.9070562E-1,4.9888965E-1,-1.04586944E-1,8.2876444E-1,1.3463295E-1,-3.045786E-2,-9.082153E-3,3.849342E-2,9.492977E-3,3.1563472E-2,-2.6594786E-2,-8.314554E-4,-2.506925E-2,3.1887077E-2,-1.645442E-2,-2.8709212E-2,5.405639E-3,4.341289E-2,1.9684942E-2,1.7108697E-2,-2.2769174E-2],"categories":[],"categories_nodes":[],"categories_segments":[],"categories_sizes":[],"default_left":[0,0,0,0,0,0,0,0,0,0,0,0,0,0,0,0,0,0,0,0,0,0,0,0,0,0,0,0,0,0,0],"id":24,"left_children":[1,3,5,7,9,11,13,15,17,19,21,23,25,27,29,-1,-1,-1,-1,-1,-1,-1,-1,-1,-1,-1,-1,-1,-1,-1,-1],"loss_changes":[2.1811359E2,1.0607162E1,2.4174469E1,5.3151245E0,1.0351788E1,1.3797102E1,9.171524E0,1.2189407E0,1.8241298E-1,4.4849734E0,2.1127586E0,1.1697418E1,6.2089825E0,3.6144714E0,2.8765397E0,0E0,0E0,0E0,0E0,0E0,0E0,0E0,0E0,0E0,0E0,0E0,0E0,0E0,0E0,0E0,0E0],"parents":[2147483647,0,0,1,1,2,2,3,3,4,4,5,5,6,6,7,7,8,8,9,9,10,10,11,11,12,12,13,13,14,14],"right_children":[2,4,6,8,10,12,14,16,18,20,22,24,26,28,30,-1,-1,-1,-1,-1,-1,-1,-1,-1,-1,-1,-1,-1,-1,-1,-1],"split_conditions":[3E0,6E1,7.3E1,1.7561801E2,9.6E0,1.22E1,1.3E1,1.1690525E2,4.181E-1,1.7176E0,1.2E2,2.825E0,6.4E1,2.825E0,1.64226E2,-3.045786E-2,-9.082153E-3,3.849342E-2,9.492977E-3,3.1563472E-2,-2.6594786E-2,-8.314554E-4,-2.506925E-2,3.1887077E-2,-1.645442E-2,-2.8709212E-2,5.405639E-3,4.341289E-2,1.9684942E-2,1.7108697E-2,-2.2769174E-2],"split_indices":[1,0,0,6,2,2,9,6,4,4,7,4,0,4,5,0,0,0,0,0,0,0,0,0,0,0,0,0,0,0,0],"split_type":[0,0,0,0,0,0,0,0,0,0,0,0,0,0,0,0,0,0,0,0,0,0,0,0,0,0,0,0,0,0,0],"sum_hessian":[7.6130115E2,3.5136462E2,4.0993652E2,2.803897E2,7.097491E1,1.5946196E2,2.5047458E2,2.7713092E2,3.2587955E0,2.0743845E1,5.023106E1,9.892102E1,6.0540928E1,2.2925603E2,2.1218554E1,2.6923035E2,7.9005733E0,1.4141616E0,1.844634E0,1.7506615E1,3.2372298E0,1.1731368E1,3.849969E1,8.491119E1,1.4009839E1,1.8343264E1,4.2197666E1,2.0926425E2,1.9991781E1,1.6007797E1,5.2107563E0],"tree_param":{"num_deleted":"0","num_feature":"10","num_nodes":"31","size_leaf_vector":"1"}},{"base_weights":[1.1349438E-1,4.6739846E-1,-3.2880434E-1,6.488644E-1,-3.5769546E-1,-1.1851213E-2,-5.103472E-1,7.6940906E-1,3.0715588E-2,3.813446E-1,-5.0270176E-1,-1.6422795E-1,5.731852E-1,-5.6722873E-1,-5.53403E-2,2.6204934E-2,4.6456397E-2,-1.2396138E-2,3.5006803E-2,-1.727071E-2,3.224424E-2,-3.310543E-2,-1.2961211E-2,-1.483292E-2,2.446853E-2,-1.5638169E-2,4.203137E-2,4.5047826E-3,-2.9869128E-2,2.0346608E-2,-2.730052E-2],"categories":[],"categories_nodes":[],"categories_segments":[],"categories_sizes":[],"default_left":[0,0,0,0,0,0,0,0,0,0,0,0,0,0,0,0,0,0,0,0,0,0,0,0,0,0,0,0,0,0,0],"id":25,"left_children":[1,3,5,7,9,11,13,15,17,19,21,23,25,27,29,-1,-1,-1,-1,-1,-1,-1,-1,-1,-1,-1,-1,-1,-1,-1,-1],"loss_changes":[1.1956907E2,6.3746513E1,1.9539429E1,2.5913513E1,8.456454E0,1.1213259E1,5.5577736E0,1.0923965E1,1.0962961E1,2.7544985E0,2.347374E0,8.777702E0,6.4225063E0,3.856388E0,5.916568E0,0E0,0E0,0E0,0E0,0E0,0E0,0E0,0E0,0E0,0E0,0E0,0E0,0E0,0E0,0E0,0E0],"parents":[2147483647,0,0,1,1,2,2,3,3,4,4,5,5,6,6,7,7,8,8,9,9,10,10,11,11,12,12,13,13,14,14],"right_children":[2,4,6,8,10,12,14,16,18,20,22,24,26,28,30,-1,-1,-1,-1,-1,-1,-1,-1,-1,-1,-1,-1,-1,-1,-1,-1],"split_conditions":[3E0,1.1E1,4E0,6.9084E1,2.86032E1,3.22E2,3.77E0,3.11E0,3.31E0,9.24E2,1.69E2,2.42E3,2.53E0,6.3E1,5E0,2.6204934E-2,4.6456397E-2,-1.2396138E-2,3.5006803E-2,-1.727071E-2,3.224424E-2,-3.310543E-2,-1.2961211E-2,-1.483292E-2,2.446853E-2,-1.5638169E-2,4.203137E-2,4.5047826E-3,-2.9869128E-2,2.0346608E-2,-2.730052E-2],"split_indices":[1,9,1,5,5,7,3,3,3,8,7,8,3,0,1,0,0,0,0,0,0,0,0,0,0,0,0,0,0,0,0],"split_type":[0,0,0,0,0,0,0,0,0,0,0,0,0,0,0,0,0,0,0,0,0,0,0,0,0,0,0,0,0,0,0],"sum_hessian":[7.618849E2,4.2320322E2,3.3868164E2,3.4708185E2,7.612138E1,1.2372945E2,2.149522E2,2.9023807E2,5.684378E1,1.2218526E1,6.390286E1,9.873304E1,2.499641E1,1.9084727E2,2.4104914E1,1.1614055E2,1.7409752E2,4.0581753E1,1.6262028E1,3.1689403E0,9.049585E0,3.7579716E1,2.6323141E1,8.255257E1,1.6180471E1,5.7567415E0,1.9239668E1,8.283654E0,1.8256363E2,1.2499493E1,1.1605422E1],"tree_param":{"num_deleted":"0","num_feature":"10","num_nodes":"31","size_leaf_vector":"1"}},{"base_weights":[-2.0218089E-1,-4.3296602E-1,5.1978874E-1,-5.289574E-1,3.3786806E-1,-8.415707E-3,7.149112E-1,-6.20525E-1,-3.230505E-1,5.914517E-1,-3.3736017E-1,2.6644203E-1,-5.331388E-1,8.610246E-1,2.2595346E-1,7.582146E-3,-3.1297985E-2,-6.034425E-3,-2.8208485E-2,3.1841246E-3,3.9130457E-2,1.257415E-3,-3.0784896E-2,-9.315579E-3,2.4806833E-2,-3.2060724E-2,-7.536631E-3,3.2824576E-2,4.9640562E-2,-1.1773947E-2,3.40744E-2],"categories":[],"categories_nodes":[],"categories_segments":[],"categories_sizes":[],"default_left":[0,0,0,0,0,0,0,0,0,0,0,0,0,0,0,0,0,0,0,0,0,0,0,0,0,0,0,0,0,0,0],"id":26,"left_children":[1,3,5,7,9,11,13,15,17,19,21,23,25,27,29,-1,-1,-1,-1,-1,-1,-1,-1,-1,-1,-1,-1,-1,-1,-1,-1],"loss_changes":[1.1847338E2,4.0011406E1,1.777042E1,8.832733E0,1.0511505E1,6.990422E0,8.798576E0,1.4820557E0,7.229539E0,4.4038124E0,1.7387629E0,3.4024088E0,5.9172153E-1,1.9509964E0,6.533061E0,0E0,0E0,0E0,0E0,0E0,0E0,0E0,0E0,0E0,0E0,0E0,0E0,0E0,0E0,0E0,0E0],"parents":[2147483647,0,0,1,1,2,2,3,3,4,4,5,5,6,6,7,7,8,8,9,9,10,10,11,11,12,12,13,13,14,14],"right_children":[2,4,6,8,10,12,14,16,18,20,22,24,26,28,30,-1,-1,-1,-1,-1,-1,-1,-1,-1,-1,-1,-1,-1,-1,-1,-1],"split_conditions":[1.1E1,2.26E0,9.7519E-1,8E0,7.7E1,6.9E1,7.4E1,1.05E2,3E0,7.8174E1,8.3E1,4.1945007E1,8.3E1,1.3E1,2.3052E0,7.582146E-3,-3.1297985E-2,-6.034425E-3,-2.8208485E-2,3.1841246E-3,3.9130457E-2,1.257415E-3,-3.0784896E-2,-9.315579E-3,2.4806833E-2,-3.2060724E-2,-7.536631E-3,3.2824576E-2,4.9640562E-2,-1.1773947E-2,3.40744E-2],"split_indices":[9,4,4,9,0,0,0,8,1,5,0,6,0,9,4,0,0,0,0,0,0,0,0,0,0,0,0,0,0,0,0],"split_type":[0,0,0,0,0,0,0,0,0,0,0,0,0,0,0,0,0,0,0,0,0,0,0,0,0,0,0,0,0,0,0],"sum_hessian":[7.086892E2,5.373273E2,1.7136195E2,4.781032E2,5.922405E1,4.64842E1,1.2487776E2,3.2954135E2,1.4856186E2,4.3144936E1,1.6079115E1,3.082817E1,1.565603E1,9.556076E1,2.9317001E1,2.115172E0,3.2742618E2,8.158841E1,6.697345E1,1.18264E1,3.1318535E1,7.378703E0,8.700413E0,1.0439543E1,2.0388628E1,1.1678627E1,3.9774022E0,3.9789234E1,5.5771526E1,1.48042E1,1.4512801E1],"tree_param":{"num_deleted":"0","num_feature":"10","num_nodes":"31","size_leaf_vector":"1"}},{"base_weights":[7.389527E-2,-4.9519238E-1,5.5113745E-1,-5.8619004E-1,-1.4752723E-1,2.610938E-1,7.395294E-1,-5.988949E-1,4.6825874E-1,4.2506915E-1,-3.8639176E-1,4.620613E-1,-8.880011E-2,7.927585E-1,9.228797E-2,8.557166E-3,-3.0277342E-2,3.740539E-2,-9.41935E-4,3.0730942E-2,-2.612701E-2,-9.14468E-3,-2.8761426E-2,2.9341055E-2,-1.37288645E-2,-1.7322456E-2,1.0864388E-2,4.1100804E-2,6.7679174E-3,1.7139474E-2,-2.3295222E-2],"categories":[],"categories_nodes":[],"categories_segments":[],"categories_sizes":[],"default_left":[0,0,0,0,0,0,0,0,0,0,0,0,0,0,0,0,0,0,0,0,0,0,0,0,0,0,0,0,0,0,0],"id":27,"left_children":[1,3,5,7,9,11,13,15,17,19,21,23,25,27,29,-1,-1,-1,-1,-1,-1,-1,-1,-1,-1,-1,-1,-1,-1,-1,-1],"loss_changes":[2.0387115E2,1.0747459E1,2.2111603E1,3.9119186E0,1.006317E1,1.1452141E1,8.433655E0,1.4778366E0,5.305098E-1,4.233391E0,1.8774524E0,9.648975E0,4.810429E0,4.2744904E0,2.941606E0,0E0,0E0,0E0,0E0,0E0,0E0,0E0,0E0,0E0,0E0,0E0,0E0,0E0,0E0,0E0,0E0],"parents":[2147483647,0,0,1,1,2,2,3,3,4,4,5,5,6,6,7,7,8,8,9,9,10,10,11,11,12,12,13,13,14,14],"right_children":[2,4,6,8,10,12,14,16,18,20,22,24,26,28,30,-1,-1,-1,-1,-1,-1,-1,-1,-1,-1,-1,-1,-1,-1,-1,-1],"split_conditions":[3E0,6E1,7.3E1,2.3331801E2,9.6E0,1.22E1,1.3E1,5.1E0,3.42E0,1.7176E0,3.28E0,2.825E0,6.8E1,1.55E1,2.56962E0,8.557166E-3,-3.0277342E-2,3.740539E-2,-9.41935E-4,3.0730942E-2,-2.612701E-2,-9.14468E-3,-2.8761426E-2,2.9341055E-2,-1.37288645E-2,-1.7322456E-2,1.0864388E-2,4.1100804E-2,6.7679174E-3,1.7139474E-2,-2.3295222E-2],"split_indices":[1,0,0,6,2,2,9,2,3,4,3,4,0,2,4,0,0,0,0,0,0,0,0,0,0,0,0,0,0,0,0],"split_type":[0,0,0,0,0,0,0,0,0,0,0,0,0,0,0,0,0,0,0,0,0,0,0,0,0,0,0,0,0,0,0],"sum_hessian":[7.486457E2,3.4144812E2,4.0719757E2,2.7007324E2,7.1374886E1,1.6128027E2,2.4591731E2,2.672848E2,2.78844E0,2.0780697E1,5.059419E1,1.0223773E2,5.9042545E1,2.2702216E2,1.8895145E1,2.0773513E0,2.6520746E2,1.4306495E0,1.3577906E0,1.7609652E1,3.1710467E0,2.5299234E1,2.5294954E1,8.760415E1,1.4633579E1,3.1986279E1,2.7056267E1,2.1710933E2,9.912826E0,1.3308533E1,5.5866117E0],"tree_param":{"num_deleted":"0","num_feature":"10","num_nodes":"31","size_leaf_vector":"1"}},{"base_weights":[1.1748047E-1,4.5863104E-1,-3.2616857E-1,6.7034274E-1,-1.8770498E-1,-2.4938496E-2,-5.018209E-1,7.688439E-1,-4.4204243E-2,2.380799E-1,-4.3172923E-1,-2.1759307E-1,3.7987685E-1,-5.699716E-1,-1.0831906E-2,2.104669E-2,4.3246474E-2,-1.5195792E-2,3.28899E-2,-3.3229482E-3,2.8051106E-2,-7.8578675E-3,-3.0309055E-2,7.46246E-3,-1.9709663E-2,-1.5362893E-2,3.421998E-2,-3.7549806E-4,-2.9826028E-2,2.1240164E-2,-2.6798904E-2],"categories":[],"categories_nodes":[],"categories_segments":[],"categories_sizes":[],"default_left":[0,0,0,0,0,0,0,0,0,0,0,0,0,0,0,0,0,0,0,0,0,0,0,0,0,0,0,0,0,0,0],"id":28,"left_children":[1,3,5,7,9,11,13,15,17,19,21,23,25,27,29,-1,-1,-1,-1,-1,-1,-1,-1,-1,-1,-1,-1,-1,-1,-1,-1],"loss_changes":[1.1407502E2,5.8408974E1,1.7331501E1,2.2631195E1,1.1103298E1,9.580939E0,6.920368E0,9.070145E0,7.4638076E0,3.8941684E0,3.145503E0,5.445916E0,8.503878E0,2.7095795E0,6.2329073E0,0E0,0E0,0E0,0E0,0E0,0E0,0E0,0E0,0E0,0E0,0E0,0E0,0E0,0E0,0E0,0E0],"parents":[2147483647,0,0,1,1,2,2,3,3,4,4,5,5,6,6,7,7,8,8,9,9,10,10,11,11,12,12,13,13,14,14],"right_children":[2,4,6,8,10,12,14,16,18,20,22,24,26,28,30,-1,-1,-1,-1,-1,-1,-1,-1,-1,-1,-1,-1,-1,-1,-1,-1],"split_conditions":[3E0,1E1,4E0,7.8174E1,9.6502E-1,1.27E1,3.77E0,2.83E0,3.31E0,3.27E0,1.2E1,6E0,2.96E0,6.3E1,5E0,2.104669E-2,4.3246474E-2,-1.5195792E-2,3.28899E-2,-3.3229482E-3,2.8051106E-2,-7.8578675E-3,-3.0309055E-2,7.46246E-3,-1.9709663E-2,-1.5362893E-2,3.421998E-2,-3.7549806E-4,-2.9826028E-2,2.1240164E-2,-2.6798904E-2],"split_indices":[1,9,1,5,4,2,3,3,3,3,9,9,3,0,1,0,0,0,0,0,0,0,0,0,0,0,0,0,0,0,0],"split_type":[0,0,0,0,0,0,0,0,0,0,0,0,0,0,0,0,0,0,0,0,0,0,0,0,0,0,0,0,0,0,0],"sum_hessian":[7.517227E2,4.249315E2,3.267912E2,3.200574E2,1.048741E2,1.2078919E2,2.0600201E2,2.812155E2,3.884186E1,3.821651E1,6.665759E1,8.215399E1,3.8635197E1,1.8075223E2,2.5249796E1,6.2022648E1,2.1919289E2,2.8766521E1,1.0075343E1,2.007743E1,1.813908E1,2.6635897E1,4.0021694E1,2.6747562E1,5.540643E1,1.1861516E1,2.677368E1,8.204997E0,1.7254723E2,1.3905533E1,1.1344262E1],"tree_param":{"num_deleted":"0","num_feature":"10","num_nodes":"31","size_leaf_vector":"1"}},{"base_weights":[-1.8989198E-1,-4.167064E-1,5.0431633E-1,-5.1805043E-1,3.724751E-1,7.061259E-1,9.3596384E-2,-6.0588133E-1,-3.2382125E-1,5.0858873E-1,-2.9727006E-2,4.5198128E-1,8.857528E-1,-4.2820588E-1,4.643844E-1,7.495349E-3,-3.0566448E-2,-6.219922E-3,-2.7897453E-2,2.9699732E-2,-1.598098E-2,5.659641E-3,3.4229286E-2,4.546983E-2,-5.4131686E-3,-3.1805765E-2,-8.073795E-3,3.370978E-2,2.1335937E-3],"categories":[],"categories_nodes":[],"categories_segments":[],"categories_sizes":[],"default_left":[0,0,0,0,0,0,0,0,0,0,0,0,0,0,0,0,0,0,0,0,0,0,0,0,0,0,0,0,0],"id":29,"left_children":[1,3,5,7,9,11,13,15,17,19,-1,21,23,25,27,-1,-1,-1,-1,-1,-1,-1,-1,-1,-1,-1,-1,-1,-1],"loss_changes":[1.1109297E2,4.2688766E1,1.4345875E1,7.843666E0,8.3379345E0,4.915077E0,1.1505527E1,1.4231033E0,6.8829374E0,4.0134068E0,0E0,3.8830585E0,1.6772614E0,1.2723751E0,3.036427E0,0E0,0E0,0E0,0E0,0E0,0E0,0E0,0E0,0E0,0E0,0E0,0E0,0E0,0E0],"parents":[2147483647,0,0,1,1,2,2,3,3,4,4,5,5,6,6,7,7,8,8,9,9,11,11,12,12,13,13,14,14],"right_children":[2,4,6,8,10,12,14,16,18,20,-1,22,24,26,28,-1,-1,-1,-1,-1,-1,-1,-1,-1,-1,-1,-1,-1,-1],"split_conditions":[1.1E1,2.26E0,6.9E1,8E0,8.4E1,1.4012E0,1.43284E0,1.05E2,3E0,6E0,-2.9727006E-2,4.1945007E1,4.215E0,9.7519E-1,2.963E0,7.495349E-3,-3.0566448E-2,-6.219922E-3,-2.7897453E-2,2.9699732E-2,-1.598098E-2,5.659641E-3,3.4229286E-2,4.546983E-2,-5.4131686E-3,-3.1805765E-2,-8.073795E-3,3.370978E-2,2.1335937E-3],"split_indices":[9,4,0,9,0,4,4,8,1,1,0,6,3,4,3,0,0,0,0,0,0,0,0,0,0,0,0,0,0],"split_type":[0,0,0,0,0,0,0,0,0,0,0,0,0,0,0,0,0,0,0,0,0,0,0,0,0,0,0,0,0],"sum_hessian":[7.032126E2,5.3033813E2,1.728744E2,4.702888E2,6.0049355E1,1.1543535E2,5.7439056E1,3.2238583E2,1.4790298E2,5.305551E1,6.9938436E0,4.925842E1,6.6176926E1,2.3796244E1,3.364281E1,2.1173084E0,3.2026852E2,8.069814E1,6.7204834E1,4.835217E1,4.70334E0,2.0657455E1,2.8600964E1,6.472256E1,1.4543712E0,1.2594376E1,1.1201868E1,2.2065857E1,1.1576955E1],"tree_param":{"num_deleted":"0","num_feature":"10","num_nodes":"29","size_leaf_vector":"1"}},{"base_weights":[7.217665E-2,-4.7716323E-1,5.177538E-1,-5.5510545E-1,-1.6681764E-1,1.0587364E-1,6.3150704E-1,-5.86246E-1,8.06778E-2,3.543188E-1,-3.964964E-1,3.9182585E-1,-4.0142754E-1,7.1873885E-1,1.4034286E-1,1.5379416E-2,-2.9670557E-2,2.1698117E-2,-2.1217316E-2,2.6544575E-2,-2.5702743E-2,3.414806E-3,-2.541614E-2,2.8233591E-2,-1.5334687E-2,-2.6481887E-2,2.9875714E-2,2.7742356E-2,4.518683E-2,2.0913284E-2,-1.1072857E-2],"categories":[],"categories_nodes":[],"categories_segments":[],"categories_sizes":[],"default_left":[0,0,0,0,0,0,0,0,0,0,0,0,0,0,0,0,0,0,0,0,0,0,0,0,0,0,0,0,0,0,0],"id":30,"left_children":[1,3,5,7,9,11,13,15,17,19,21,23,25,27,29,-1,-1,-1,-1,-1,-1,-1,-1,-1,-1,-1,-1,-1,-1,-1,-1],"loss_changes":[1.8099854E2,7.919655E0,1.9058853E1,5.2803955E0,8.270044E0,1.3146697E1,1.3595276E1,1.7970581E0,2.542949E0,3.539637E0,2.50953E0,7.148159E0,4.5137634E0,7.721634E0,5.065321E0,0E0,0E0,0E0,0E0,0E0,0E0,0E0,0E0,0E0,0E0,0E0,0E0,0E0,0E0,0E0,0E0],"parents":[2147483647,0,0,1,1,2,2,3,3,4,4,5,5,6,6,7,7,8,8,9,9,10,10,11,11,12,12,13,13,14,14],"right_children":[2,4,6,8,10,12,14,16,18,20,22,24,26,28,30,-1,-1,-1,-1,-1,-1,-1,-1,-1,-1,-1,-1,-1,-1,-1,-1],"split_conditions":[3E0,6E1,6.8E1,1.1690525E2,9.6E0,1.22E1,2.26E0,5.1E0,3.31E0,1.7176E0,1.03E2,2.4634E0,7.958443E1,5E0,1.1E1,1.5379416E-2,-2.9670557E-2,2.1698117E-2,-2.1217316E-2,2.6544575E-2,-2.5702743E-2,3.414806E-3,-2.541614E-2,2.8233591E-2,-1.5334687E-2,-2.6481887E-2,2.9875714E-2,2.7742356E-2,4.518683E-2,2.0913284E-2,-1.1072857E-2],"split_indices":[1,0,0,6,2,2,4,2,3,4,7,4,6,1,9,0,0,0,0,0,0,0,0,0,0,0,0,0,0,0,0],"split_type":[0,0,0,0,0,0,0,0,0,0,0,0,0,0,0,0,0,0,0,0,0,0,0,0,0,0,0,0,0,0,0],"sum_hessian":[7.374445E2,3.302354E2,4.072091E2,2.633159E2,6.691954E1,8.854266E1,3.1866644E2,2.510952E2,1.2220688E1,2.030507E1,4.6614468E1,5.6770348E1,3.1772314E1,2.7021274E2,4.8453716E1,1.6633899E0,2.4943181E2,7.273379E0,4.9473095E0,1.719693E1,3.1081398E0,9.115656E0,3.749881E1,4.5662865E1,1.1107483E1,2.857467E1,3.1976435E0,1.4540018E2,1.2481255E2,2.7315096E1,2.1138622E1],"tree_param":{"num_deleted":"0","num_feature":"10","num_nodes":"31","size_leaf_vector":"1"}},{"base_weights":[9.6699074E-2,4.2468444E-1,-3.2446235E-1,6.3668543E-1,-2.329235E-1,-2.9433405E-2,-4.9332783E-1,7.4617505E-1,7.33622E-2,-4.266856E-1,2.0775872E-1,-3.4084317E-1,2.5548953E-1,-5.588634E-1,-3.0866003E-2,1.6570074E-2,4.0973954E-2,2.0884039E-2,-2.6964799E-2,5.4390356E-3,-2.4958996E-2,2.911648E-2,-1.3451772E-2,-2.1674935E-2,3.4090623E-2,2.6072333E-2,-8.482145E-3,3.2538853E-3,-2.9495586E-2,2.0803273E-2,-2.6818216E-2],"categories":[],"categories_nodes":[],"categories_segments":[],"categories_sizes":[],"default_left":[0,0,0,0,0,0,0,0,0,0,0,0,0,0,0,0,0,0,0,0,0,0,0,0,0,0,0,0,0,0,0],"id":31,"left_children":[1,3,5,7,9,11,13,15,17,19,21,23,25,27,29,-1,-1,-1,-1,-1,-1,-1,-1,-1,-1,-1,-1,-1,-1,-1,-1],"loss_changes":[1.0414549E2,5.9221855E1,1.6436832E1,1.972519E1,8.971731E0,1.0846848E1,6.345768E0,7.8889923E0,1.1468297E1,2.8720407E0,5.951041E0,5.826292E0,7.3132424E0,3.5996017E0,6.349596E0,0E0,0E0,0E0,0E0,0E0,0E0,0E0,0E0,0E0,0E0,0E0,0E0,0E0,0E0,0E0,0E0],"parents":[2147483647,0,0,1,1,2,2,3,3,4,4,5,5,6,6,7,7,8,8,9,9,10,10,11,11,12,12,13,13,14,14],"right_children":[2,4,6,8,10,12,14,16,18,20,22,24,26,28,30,-1,-1,-1,-1,-1,-1,-1,-1,-1,-1,-1,-1,-1,-1,-1,-1],"split_conditions":[3E0,1E1,4E0,6.86598E1,3.42E0,1.115E1,3.77E0,8.99E0,8E0,2.77548E1,1.2E1,3.014E3,5.5146E1,6.3E1,5E0,1.6570074E-2,4.0973954E-2,2.0884039E-2,-2.6964799E-2,5.4390356E-3,-2.4958996E-2,2.911648E-2,-1.3451772E-2,-2.1674935E-2,3.4090623E-2,2.6072333E-2,-8.482145E-3,3.2538853E-3,-2.9495586E-2,2.0803273E-2,-2.6818216E-2],"split_indices":[1,9,1,5,3,2,3,2,9,5,9,8,5,0,1,0,0,0,0,0,0,0,0,0,0,0,0,0,0,0,0],"split_type":[0,0,0,0,0,0,0,0,0,0,0,0,0,0,0,0,0,0,0,0,0,0,0,0,0,0,0,0,0,0,0],"sum_hessian":[7.5194354E2,4.22729E2,3.292145E2,3.1969644E2,1.0303257E2,1.2026715E2,2.0894737E2,2.6739914E2,5.2297306E1,7.158803E1,3.1444542E1,5.73689E1,6.2898254E1,1.8283003E2,2.611734E1,4.098967E1,2.2640947E2,3.368457E1,1.8612736E1,8.476596E0,6.311143E1,1.7486082E1,1.3958459E1,5.313117E1,4.237731E0,3.8553288E1,2.4344967E1,8.614687E0,1.7421533E2,1.3955574E1,1.2161765E1],"tree_param":{"num_deleted":"0","num_feature":"10","num_nodes":"31","size_leaf_vector":"1"}},{"base_weights":[-1.8324831E-1,-4.3133894E-1,3.754166E-1,-2.3637353E-1,-5.420847E-1,5.9006304E-1,-1.0411742E-1,4.1908156E-2,-5.154606E-1,-3.4045434E-1,-6.033603E-1,7.953635E-1,2.6068458E-1,-4.8171034E-1,1.9530159E-1,3.059256E-2,-4.0367157E-3,-2.7986234E-2,-3.3778928E-3,-5.7419543E-3,-2.6142238E-2,2.2579103E-3,-3.0709127E-2,4.257516E-2,-3.6854018E-3,3.5230514E-2,-2.4930027E-3,1.9864334E-2,-2.8603557E-2,-2.0011764E-3,2.3858285E-2],"categories":[],"categories_nodes":[],"categories_segments":[],"categories_sizes":[],"default_left":[0,0,0,0,0,0,0,0,0,0,0,0,0,0,0,0,0,0,0,0,0,0,0,0,0,0,0,0,0,0,0],"id":32,"left_children":[1,3,5,7,9,11,13,15,17,19,21,23,25,27,29,-1,-1,-1,-1,-1,-1,-1,-1,-1,-1,-1,-1,-1,-1,-1,-1],"loss_changes":[9.59093E1,1.02109375E1,2.198284E1,1.3631469E1,3.5580292E0,9.751289E0,7.635436E0,6.2474093E0,1.698309E0,2.9558525E0,1.6582489E0,4.465294E0,8.035736E0,2.5933208E0,2.5339336E0,0E0,0E0,0E0,0E0,0E0,0E0,0E0,0E0,0E0,0E0,0E0,0E0,0E0,0E0,0E0,0E0],"parents":[2147483647,0,0,1,1,2,2,3,3,4,4,5,5,6,6,7,7,8,8,9,9,10,10,11,11,12,12,13,13,14,14],"right_children":[2,4,6,8,10,12,14,16,18,20,22,24,26,28,30,-1,-1,-1,-1,-1,-1,-1,-1,-1,-1,-1,-1,-1,-1,-1,-1],"split_conditions":[1.4012E0,1.71E2,7.3E1,6.3E1,2.77E0,1.376E3,2.147E0,2.54E0,8.2416E1,5.7E1,1.6E2,3.823E0,1.8E2,8.53E1,1.524696E2,3.059256E-2,-4.0367157E-3,-2.7986234E-2,-3.3778928E-3,-5.7419543E-3,-2.6142238E-2,2.2579103E-3,-3.0709127E-2,4.257516E-2,-3.6854018E-3,3.5230514E-2,-2.4930027E-3,1.9864334E-2,-2.8603557E-2,-2.0011764E-3,2.3858285E-2],"split_indices":[4,7,0,0,3,8,4,3,5,0,8,3,7,7,5,0,0,0,0,0,0,0,0,0,0,0,0,0,0,0,0],"split_type":[0,0,0,0,0,0,0,0,0,0,0,0,0,0,0,0,0,0,0,0,0,0,0,0,0,0,0,0,0,0,0],"sum_hessian":[6.898204E2,4.7784708E2,2.119733E2,1.7423853E2,3.0360855E2,1.4627014E2,6.570315E1,8.767068E1,8.656785E1,7.2290184E1,2.3131836E2,8.9235344E1,5.7034805E1,2.8788975E1,3.691417E1,1.4818299E1,7.285238E1,7.855497E1,8.012871E0,3.3044308E1,3.9245876E1,3.7447329E0,2.2757362E2,8.383974E1,5.395607E0,2.295357E1,3.4081234E1,2.3669994E0,2.6421976E1,2.058554E1,1.6328629E1],"tree_param":{"num_deleted":"0","num_feature":"10","num_nodes":"31","size_leaf_vector":"1"}},{"base_weights":[7.120872E-2,-4.6932092E-1,5.059914E-1,-5.472689E-1,-1.6423813E-1,1.1323716E-1,6.137233E-1,-4.0491492E-1,-6.029114E-1,3.87311E-1,-3.948593E-1,4.0668696E-1,-2.3052184E-1,6.881387E-1,1.6726358E-1,-2.4530692E-2,-5.2169594E-4,-3.1060934E-2,-5.0912197E-3,2.7238471E-2,-2.4362898E-2,-1.0793436E-3,-2.4003789E-2,2.6407188E-2,-3.3686683E-2,-1.5221876E-2,4.355493E-2,3.8429804E-2,1.676583E-2,2.2262154E-2,-1.0890753E-2],"categories":[],"categories_nodes":[],"categories_segments":[],"categories_sizes":[],"default_left":[0,0,0,0,0,0,0,0,0,0,0,0,0,0,0,0,0,0,0,0,0,0,0,0,0,0,0,0,0,0,0],"id":33,"left_children":[1,3,5,7,9,11,13,15,17,19,21,23,25,27,29,-1,-1,-1,-1,-1,-1,-1,-1,-1,-1,-1,-1,-1,-1,-1,-1],"loss_changes":[1.7192535E2,7.667061E0,1.7082115E1,1.8103943E0,8.778174E0,9.019419E0,1.04459E1,2.5620747E0,1.6287231E0,3.0882103E0,1.5263553E0,6.6671295E0,3.635142E0,7.4676056E0,5.0996823E0,0E0,0E0,0E0,0E0,0E0,0E0,0E0,0E0,0E0,0E0,0E0,0E0,0E0,0E0,0E0,0E0],"parents":[2147483647,0,0,1,1,2,2,3,3,4,4,5,5,6,6,7,7,8,8,9,9,10,10,11,11,12,12,13,13,14,14],"right_children":[2,4,6,8,10,12,14,16,18,20,22,24,26,28,30,-1,-1,-1,-1,-1,-1,-1,-1,-1,-1,-1,-1,-1,-1,-1,-1],"split_conditions":[3E0,6E1,6.8E1,2.82E0,9.6E0,1.086E1,2.26E0,5.5E1,1.818E2,1.7176E0,1.2E2,3.014E3,5E0,1.355E1,1.1E1,-2.4530692E-2,-5.2169594E-4,-3.1060934E-2,-5.0912197E-3,2.7238471E-2,-2.4362898E-2,-1.0793436E-3,-2.4003789E-2,2.6407188E-2,-3.3686683E-2,-1.5221876E-2,4.355493E-2,3.8429804E-2,1.676583E-2,2.2262154E-2,-1.0890753E-2],"split_indices":[1,0,0,3,2,2,4,0,5,4,7,8,1,2,9,0,0,0,0,0,0,0,0,0,0,0,0,0,0,0,0],"split_type":[0,0,0,0,0,0,0,0,0,0,0,0,0,0,0,0,0,0,0,0,0,0,0,0,0,0,0,0,0,0,0],"sum_hessian":[7.2954663E2,3.2518784E2,4.0435883E2,2.5837875E2,6.6809074E1,8.748158E1,3.1687723E2,7.493764E1,1.8344112E2,1.949818E1,4.7310894E1,4.7095478E1,4.0386105E1,2.711422E2,4.5735016E1,6.136313E1,1.3574512E1,1.76744E2,6.69711E0,1.684287E1,2.6553094E0,9.026326E0,3.828457E1,4.2795715E1,4.2997637E0,3.8524837E1,1.8612638E0,2.1983318E2,5.130904E1,2.6470398E1,1.9264618E1],"tree_param":{"num_deleted":"0","num_feature":"10","num_nodes":"31","size_leaf_vector":"1"}},{"base_weights":[9.155099E-2,4.1946134E-1,-3.2674488E-1,5.943398E-1,-1.8981901E-1,-1.571651E-1,-6.17014E-1,2.6773188E-1,7.3230714E-1,-5.3575295E-1,1.226001E-1,-3.9840403E-1,1.7250247E-1,3.1711531E-3,-6.245906E-1,1.19365744E-4,3.0446513E-2,2.1452947E-2,4.1605808E-2,3.1868785E-3,-2.9911656E-2,-7.676544E-3,3.3402305E-2,-2.3521995E-2,2.6008813E-2,-8.624894E-3,3.1784214E-2,-3.2017678E-2,-1.0695919E-2],"categories":[],"categories_nodes":[],"categories_segments":[],"categories_sizes":[],"default_left":[0,0,0,0,0,0,0,0,0,0,0,0,0,0,0,0,0,0,0,0,0,0,0,0,0,0,0,0,0],"id":34,"left_children":[1,3,5,7,9,11,13,15,17,19,21,23,25,-1,27,-1,-1,-1,-1,-1,-1,-1,-1,-1,-1,-1,-1,-1,-1],"loss_changes":[1.0119841E2,4.416674E1,1.5868099E1,1.429081E1,1.01129875E1,1.645734E1,6.5446854E-1,8.785141E0,6.4663773E0,1.6975317E0,7.582459E0,8.138714E0,1.413581E1,0E0,6.271591E-1,0E0,0E0,0E0,0E0,0E0,0E0,0E0,0E0,0E0,0E0,0E0,0E0,0E0,0E0],"parents":[2147483647,0,0,1,1,2,2,3,3,4,4,5,5,6,6,7,7,8,8,9,9,10,10,11,11,12,12,14,14],"right_children":[2,4,6,8,10,12,14,16,18,20,22,24,26,-1,28,-1,-1,-1,-1,-1,-1,-1,-1,-1,-1,-1,-1,-1,-1],"split_conditions":[3E0,1.2995E0,5E0,1.71E2,1.88E2,1.2E1,5.4E1,1.785E3,2.89E0,1.4012E0,3.44E0,2.87E3,1.5618E3,3.1711531E-3,1.52E1,1.19365744E-4,3.0446513E-2,2.1452947E-2,4.1605808E-2,3.1868785E-3,-2.9911656E-2,-7.676544E-3,3.3402305E-2,-2.3521995E-2,2.6008813E-2,-8.624894E-3,3.1784214E-2,-3.2017678E-2,-1.0695919E-2],"split_indices":[1,4,1,7,7,2,0,8,3,4,3,8,8,0,2,0,0,0,0,0,0,0,0,0,0,0,0,0,0],"split_type":[0,0,0,0,0,0,0,0,0,0,0,0,0,0,0,0,0,0,0,0,0,0,0,0,0,0,0,0,0],"sum_hessian":[7.3579443E2,4.1245786E2,3.233366E2,3.20493E2,9.196484E1,2.0507184E2,1.1826476E2,9.6051765E1,2.2444125E2,4.330236E1,4.8662487E1,1.1829748E2,8.677436E1,1.2211939E0,1.1704357E2,5.4598427E1,4.1453335E1,5.689048E1,1.6755077E2,4.085197E0,3.9217163E1,3.2784115E1,1.5878372E1,1.1014748E2,8.15E0,5.009141E1,3.6682945E1,1.12178505E2,4.865068E0],"tree_param":{"num_deleted":"0","num_feature":"10","num_nodes":"29","size_leaf_vector":"1"}},{"base_weights":[-1.8522187E-1,-3.9831927E-1,4.6863165E-1,-5.0191194E-1,3.472227E-1,1.3046797E-1,6.995985E-1,-5.949651E-1,-3.0046704E-1,5.6865776E-1,-3.215889E-1,4.4990683E-1,-3.36799E-1,8.1161743E-1,2.9280913E-1,2.7096453E-3,-3.0018196E-2,-4.63459E-3,-2.7248194E-2,-1.1545228E-2,3.261441E-2,-3.1517725E-2,7.243063E-4,3.8428634E-2,9.612096E-3,3.296156E-3,-2.2418078E-2,4.23928E-2,-1.3691395E-2,-1.2602392E-2,2.6460325E-2],"categories":[],"categories_nodes":[],"categories_segments":[],"categories_sizes":[],"default_left":[0,0,0,0,0,0,0,0,0,0,0,0,0,0,0,0,0,0,0,0,0,0,0,0,0,0,0,0,0,0,0],"id":35,"left_children":[1,3,5,7,9,11,13,15,17,19,21,23,25,27,29,-1,-1,-1,-1,-1,-1,-1,-1,-1,-1,-1,-1,-1,-1,-1,-1],"loss_changes":[9.709236E1,4.0727478E1,1.3296757E1,8.470764E0,9.757363E0,1.0718195E1,4.392952E0,1.1351395E0,7.458742E0,3.4224691E0,1.7440704E0,3.3398619E0,1.3467224E0,3.3441086E0,3.160974E0,0E0,0E0,0E0,0E0,0E0,0E0,0E0,0E0,0E0,0E0,0E0,0E0,0E0,0E0,0E0,0E0],"parents":[2147483647,0,0,1,1,2,2,3,3,4,4,5,5,6,6,7,7,8,8,9,9,10,10,11,11,12,12,13,13,14,14],"right_children":[2,4,6,8,10,12,14,16,18,20,22,24,26,28,30,-1,-1,-1,-1,-1,-1,-1,-1,-1,-1,-1,-1,-1,-1,-1,-1],"split_conditions":[1.1E1,2.26E0,1.3673E0,8E0,7.7E1,6.4E1,5E0,1.05E2,3E0,3.68448E1,8E0,1.48E2,8.53E1,4.215E0,2.3052E0,2.7096453E-3,-3.0018196E-2,-4.63459E-3,-2.7248194E-2,-1.1545228E-2,3.261441E-2,-3.1517725E-2,7.243063E-4,3.8428634E-2,9.612096E-3,3.296156E-3,-2.2418078E-2,4.23928E-2,-1.3691395E-2,-1.2602392E-2,2.6460325E-2],"split_indices":[9,4,4,9,0,0,1,8,1,5,9,7,7,3,4,0,0,0,0,0,0,0,0,0,0,0,0,0,0,0,0],"split_type":[0,0,0,0,0,0,0,0,0,0,0,0,0,0,0,0,0,0,0,0,0,0,0,0,0,0,0,0,0,0,0],"sum_hessian":[6.9448975E2,5.2407825E2,1.7041153E2,4.6042868E2,6.3649548E1,6.979216E1,1.0061937E2,3.1360983E2,1.4681883E2,4.793021E1,1.5719337E1,4.147539E1,2.8316772E1,7.811375E1,2.2505617E1,2.5121245E0,3.1109772E2,8.011534E1,6.670349E1,4.3718095E0,4.35584E1,7.7361712E0,7.9831667E0,1.7656258E1,2.3819132E1,6.231433E0,2.2085339E1,7.580192E1,2.3118281E0,6.7898746E0,1.5715743E1],"tree_param":{"num_deleted":"0","num_feature":"10","num_nodes":"31","size_leaf_vector":"1"}},{"base_weights":[8.059775E-2,-4.5963085E-1,4.900112E-1,-5.766913E-1,-2.593162E-1,2.3193944E-1,6.69551E-1,-5.903663E-1,3.8626056E-2,-3.833679E-1,2.6935464E-1,4.5024097E-1,-6.895278E-2,7.2326684E-1,2.649531E-1,1.6673673E-2,-2.9989287E-2,-9.728479E-3,-2.7601102E-2,3.4203287E-2,-1.1211912E-2,2.9028503E-2,-3.8757517E-3,1.5506965E-2,-1.1672373E-2,2.8791213E-2,4.1702077E-2,1.936744E-2,-1.5327412E-2],"categories":[],"categories_nodes":[],"categories_segments":[],"categories_sizes":[],"default_left":[0,0,0,0,0,0,0,0,0,0,0,0,0,0,0,0,0,0,0,0,0,0,0,0,0,0,0,0,0],"id":36,"left_children":[1,3,5,7,9,11,13,15,-1,17,19,21,23,25,27,-1,-1,-1,-1,-1,-1,-1,-1,-1,-1,-1,-1,-1,-1],"loss_changes":[1.6083005E2,7.203369E0,1.9006935E1,4.0925903E0,7.807537E0,1.1276667E1,5.0974197E0,1.9028854E0,0E0,2.9354038E0,4.8437896E0,6.8786488E0,4.615374E0,3.019249E0,2.2242756E0,0E0,0E0,0E0,0E0,0E0,0E0,0E0,0E0,0E0,0E0,0E0,0E0,0E0,0E0],"parents":[2147483647,0,0,1,1,2,2,3,3,4,4,5,5,6,6,7,7,9,9,10,10,11,11,12,12,13,13,14,14],"right_children":[2,4,6,8,10,12,14,16,-1,18,20,22,24,26,28,-1,-1,-1,-1,-1,-1,-1,-1,-1,-1,-1,-1,-1,-1],"split_conditions":[6.3E1,2E0,7.3E1,3.653635E2,7.167149E1,1.153E1,2.56962E0,5.1E0,3.8626056E-2,1.13E1,3.04E0,2.0114E0,1.15E3,5E0,2.059188E2,1.6673673E-2,-2.9989287E-2,-9.728479E-3,-2.7601102E-2,3.4203287E-2,-1.1211912E-2,2.9028503E-2,-3.8757517E-3,1.5506965E-2,-1.1672373E-2,2.8791213E-2,4.1702077E-2,1.936744E-2,-1.5327412E-2],"split_indices":[0,1,0,6,6,2,4,2,0,2,3,4,8,1,5,0,0,0,0,0,0,0,0,0,0,0,0,0,0],"split_type":[0,0,0,0,0,0,0,0,0,0,0,0,0,0,0,0,0,0,0,0,0,0,0,0,0,0,0,0,0],"sum_hessian":[7.251375E2,3.1257126E2,4.1256622E2,1.9609676E2,1.1647451E2,1.7020468E2,2.4236156E2,1.9468596E2,1.4108113E0,9.456082E1,2.1913689E1,9.8352325E1,7.1852356E1,2.132607E2,2.9100863E1,1.6177436E0,1.930682E2,4.5632076E1,4.8928745E1,1.1698692E1,1.0214997E1,7.87941E1,1.9558228E1,2.1475294E1,5.0377064E1,9.41474E1,1.1911329E2,2.4233183E1,4.867678E0],"tree_param":{"num_deleted":"0","num_feature":"10","num_nodes":"29","size_leaf_vector":"1"}},{"base_weights":[1.0186449E-1,4.0296236E-1,-2.9952937E-1,5.5000347E-1,-2.9503277E-1,-1.2454503E-1,-6.012849E-1,2.9753682E-1,7.571694E-1,7.429795E-2,-4.8569152E-1,-3.69576E-1,2.0717385E-1,3.4068474E-3,-6.0898685E-1,9.139318E-4,3.0926585E-2,3.9338544E-2,-2.8679296E-2,2.9327413E-2,-1.4203416E-2,-2.688161E-2,2.1635486E-2,-2.424888E-2,1.4911586E-2,-6.3129063E-3,2.9880939E-2,-3.1238822E-2,-1.036472E-2],"categories":[],"categories_nodes":[],"categories_segments":[],"categories_sizes":[],"default_left":[0,0,0,0,0,0,0,0,0,0,0,0,0,0,0,0,0,0,0,0,0,0,0,0,0,0,0,0,0],"id":37,"left_children":[1,3,5,7,9,11,13,15,17,19,21,23,25,-1,27,-1,-1,-1,-1,-1,-1,-1,-1,-1,-1,-1,-1,-1,-1],"loss_changes":[8.882049E1,4.3245308E1,1.6565222E1,1.7927841E1,5.225322E0,1.639221E1,6.365242E-1,1.4159357E1,7.935669E0,4.9317684E0,2.5574665E0,9.069631E0,1.126119E1,0E0,5.947876E-1,0E0,0E0,0E0,0E0,0E0,0E0,0E0,0E0,0E0,0E0,0E0,0E0,0E0,0E0],"parents":[2147483647,0,0,1,1,2,2,3,3,4,4,5,5,6,6,7,7,8,8,9,9,10,10,11,11,12,12,14,14],"right_children":[2,4,6,8,10,12,14,16,18,20,22,24,26,-1,28,-1,-1,-1,-1,-1,-1,-1,-1,-1,-1,-1,-1,-1,-1],"split_conditions":[3E0,1.1E1,5E0,3.15E0,9.6502E-1,1.21E1,5.4E1,1.757E3,3.3561E0,4.3877716E1,4.4E0,3.6E2,1.5618E3,3.4068474E-3,1.52E1,9.139318E-4,3.0926585E-2,3.9338544E-2,-2.8679296E-2,2.9327413E-2,-1.4203416E-2,-2.688161E-2,2.1635486E-2,-2.424888E-2,1.4911586E-2,-6.3129063E-3,2.9880939E-2,-3.1238822E-2,-1.036472E-2],"split_indices":[1,9,1,3,4,2,0,8,4,6,3,7,8,0,2,0,0,0,0,0,0,0,0,0,0,0,0,0,0],"split_type":[0,0,0,0,0,0,0,0,0,0,0,0,0,0,0,0,0,0,0,0,0,0,0,0,0,0,0,0,0],"sum_hessian":[7.3291235E2,4.1877353E2,3.141388E2,3.4607968E2,7.269385E1,1.9973035E2,1.14408455E2,1.5708336E2,1.8899634E2,2.4957752E1,4.7736095E1,1.14809685E2,8.492066E1,1.212091E0,1.13196365E2,8.456805E1,7.251531E1,1.8528365E2,3.712691E0,1.0011106E1,1.4946646E1,4.5573277E1,2.1628208E0,9.812655E1,1.6683134E1,4.616949E1,3.875117E1,1.0838081E2,4.815549E0],"tree_param":{"num_deleted":"0","num_feature":"10","num_nodes":"29","size_leaf_vector":"1"}},{"base_weights":[-1.9741231E-1,-4.072743E-1,3.9959192E-1,-2.4687877E-1,-5.235837E-1,5.8989984E-1,-2.8116494E-2,-2.4040572E-2,-5.0660217E-1,-3.971857E-1,-5.907832E-1,3.829099E-1,8.093135E-1,-4.9264815E-1,1.6302174E-1,3.0447906E-2,-7.3918826E-3,-2.6165102E-2,3.6263063E-3,-8.053856E-3,-2.857226E-2,-7.832789E-3,-3.014465E-2,2.6299316E-2,-1.3303901E-2,4.2551022E-2,1.597183E-3,3.480248E-3,-3.0207394E-2,-1.9129908E-3,2.7861858E-2],"categories":[],"categories_nodes":[],"categories_segments":[],"categories_sizes":[],"default_left":[0,0,0,0,0,0,0,0,0,0,0,0,0,0,0,0,0,0,0,0,0,0,0,0,0,0,0,0,0,0,0],"id":38,"left_children":[1,3,5,7,9,11,13,15,17,19,21,23,25,27,29,-1,-1,-1,-1,-1,-1,-1,-1,-1,-1,-1,-1,-1,-1,-1,-1],"loss_changes":[8.428587E1,9.148003E0,1.427248E1,1.2195279E1,2.2062378E0,5.19709E0,4.9536757E0,9.068319E0,9.794655E-1,4.137594E0,8.811264E-1,6.109789E0,1.8520775E0,1.060714E0,3.166496E0,0E0,0E0,0E0,0E0,0E0,0E0,0E0,0E0,0E0,0E0,0E0,0E0,0E0,0E0,0E0,0E0],"parents":[2147483647,0,0,1,1,2,2,3,3,4,4,5,5,6,6,7,7,8,8,9,9,10,10,11,11,12,12,13,13,14,14],"right_children":[2,4,6,8,10,12,14,16,18,20,22,24,26,28,30,-1,-1,-1,-1,-1,-1,-1,-1,-1,-1,-1,-1,-1,-1,-1,-1],"split_conditions":[1.6046E0,1.9E2,7.3E1,6.6E1,2.93E0,3.164E0,2.147E0,2.54E0,1.88E2,5.8E1,1.6E2,2.8E2,4.16E2,7.1E0,1.115E1,3.0447906E-2,-7.3918826E-3,-2.6165102E-2,3.6263063E-3,-8.053856E-3,-2.857226E-2,-7.832789E-3,-3.014465E-2,2.6299316E-2,-1.3303901E-2,4.2551022E-2,1.597183E-3,3.480248E-3,-3.0207394E-2,-1.9129908E-3,2.7861858E-2],"split_indices":[4,7,0,0,3,4,4,3,7,0,8,7,7,2,2,0,0,0,0,0,0,0,0,0,0,0,0,0,0,0,0],"split_type":[0,0,0,0,0,0,0,0,0,0,0,0,0,0,0,0,0,0,0,0,0,0,0,0,0,0,0,0,0,0,0],"sum_hessian":[6.704354E2,4.9629358E2,1.7414186E2,2.0992325E2,2.8637033E2,1.2025532E2,5.3886543E1,1.1357253E2,9.635071E1,1.01800514E2,1.8456982E2,6.3292103E1,5.6963215E1,1.5248937E1,3.8637604E1,1.7937187E1,9.5635345E1,9.374389E1,2.606819E0,4.4045918E1,5.7754593E1,5.38699E0,1.7918285E2,5.2014473E1,1.1277629E1,5.397276E1,2.9904542E0,2.5857348E0,1.2663201E1,2.6175608E1,1.2461998E1],"tree_param":{"num_deleted":"0","num_feature":"10","num_nodes":"31","size_leaf_vector":"1"}},{"base_weights":[8.053287E-2,-4.406551E-1,4.6579912E-1,-5.0836974E-1,-3.1387087E-2,2.4130295E-1,6.4692014E-1,-5.271494E-1,4.5636734E-1,3.8801634E-1,-3.4490567E-1,3.390786E-1,-2.9193452E-1,7.0244867E-1,4.375934E-2,-1.1806061E-2,-2.8258625E-2,3.8761407E-2,-1.8815456E-2,3.756054E-2,-1.0723286E-2,-2.6586741E-2,4.184065E-3,2.1031879E-2,-1.24764E-2,2.1682832E-2,-2.1147149E-2,3.6733054E-2,1.2409646E-3,1.2225316E-2,-2.8855938E-2],"categories":[],"categories_nodes":[],"categories_segments":[],"categories_sizes":[],"default_left":[0,0,0,0,0,0,0,0,0,0,0,0,0,0,0,0,0,0,0,0,0,0,0,0,0,0,0,0,0,0,0],"id":39,"left_children":[1,3,5,7,9,11,13,15,17,19,21,23,25,27,29,-1,-1,-1,-1,-1,-1,-1,-1,-1,-1,-1,-1,-1,-1,-1,-1],"loss_changes":[1.4234874E2,8.336571E0,1.6413658E1,4.924591E0,5.900016E0,9.669435E0,7.503395E0,2.677971E0,1.7447381E0,4.3687906E0,2.0962172E0,7.573805E0,2.938229E0,4.47657E0,2.6376333E0,0E0,0E0,0E0,0E0,0E0,0E0,0E0,0E0,0E0,0E0,0E0,0E0,0E0,0E0,0E0,0E0],"parents":[2147483647,0,0,1,1,2,2,3,3,4,4,5,5,6,6,7,7,8,8,9,9,10,10,11,11,12,12,13,13,14,14],"right_children":[2,4,6,8,10,12,14,16,18,20,22,24,26,28,30,-1,-1,-1,-1,-1,-1,-1,-1,-1,-1,-1,-1,-1,-1,-1,-1],"split_conditions":[6.3E1,6E1,7.4E1,1.7561801E2,1.07E1,3.73E0,1.3E1,7.8E0,7.458E-1,1.714E3,4.9692E1,1.3E1,1.03E1,1.55E1,1.64226E2,-1.1806061E-2,-2.8258625E-2,3.8761407E-2,-1.8815456E-2,3.756054E-2,-1.0723286E-2,-2.6586741E-2,4.184065E-3,2.1031879E-2,-1.24764E-2,2.1682832E-2,-2.1147149E-2,3.6733054E-2,1.2409646E-3,1.2225316E-2,-2.8855938E-2],"split_indices":[0,0,0,6,2,3,9,2,4,8,5,9,2,2,5,0,0,0,0,0,0,0,0,0,0,0,0,0,0,0,0],"split_type":[0,0,0,0,0,0,0,0,0,0,0,0,0,0,0,0,0,0,0,0,0,0,0,0,0,0,0,0,0,0,0],"sum_hessian":[7.068995E2,3.0038925E2,4.065102E2,2.5753687E2,4.2852406E1,1.825612E2,2.2394899E2,2.5306427E2,4.4725785E0,1.8229126E1,2.4623278E1,1.54581E2,2.7980211E1,2.0491902E2,1.9029976E1,3.0075672E1,2.229886E2,3.2840095E0,1.1885692E0,1.12190695E1,7.010056E0,1.6980492E1,7.6427855E0,1.3601917E2,1.8561829E1,3.9259834E0,2.4054228E1,1.9553952E2,9.379498E0,1.4838479E1,4.191496E0],"tree_param":{"num_deleted":"0","num_feature":"10","num_nodes":"31","size_leaf_vector":"1"}},{"base_weights":[9.648455E-2,3.0743217E-1,-4.7886807E-1,4.8053673E-1,-2.2296587E-1,-5.381188E-1,-1.765108E-2,4.0023137E-2,6.0752666E-1,-4.041875E-1,1.9816096E-1,-5.617054E-1,2.1573576E-1,-4.777475E-1,5.591403E-1,1.7427025E-2,-1.4433801E-2,1.919501E-2,3.8465317E-2,-4.825687E-3,-2.6504988E-2,2.073292E-2,-2.981698E-2,-2.935044E-2,-3.6471223E-3,-2.3425786E-2,3.757222E-2,-3.0038564E-2,-5.308175E-3,-1.0202553E-2,5.830222E-2],"categories":[],"categories_nodes":[],"categories_segments":[],"categories_sizes":[],"default_left":[0,0,0,0,0,0,0,0,0,0,0,0,0,0,0,0,0,0,0,0,0,0,0,0,0,0,0,0,0,0,0],"id":40,"left_children":[1,3,5,7,9,11,13,15,17,19,21,23,25,27,29,-1,-1,-1,-1,-1,-1,-1,-1,-1,-1,-1,-1,-1,-1,-1,-1],"loss_changes":[8.765018E1,4.8599255E1,5.286846E0,2.2268806E1,1.0050278E1,3.1743813E0,6.3967495E0,9.252359E0,1.089341E1,3.4999561E0,7.1233625E0,2.0198212E0,2.526518E0,5.4822373E-1,5.1985345E0,0E0,0E0,0E0,0E0,0E0,0E0,0E0,0E0,0E0,0E0,0E0,0E0,0E0,0E0,0E0,0E0],"parents":[2147483647,0,0,1,1,2,2,3,3,4,4,5,5,6,6,7,7,8,8,9,9,10,10,11,11,12,12,13,13,14,14],"right_children":[2,4,6,8,10,12,14,16,18,20,22,24,26,28,30,-1,-1,-1,-1,-1,-1,-1,-1,-1,-1,-1,-1,-1,-1,-1,-1],"split_conditions":[4E0,1E1,1.42E1,9.4E0,3.42E0,4.215E0,2.32E2,2E0,1.57E3,9.6502E-1,2.2148E0,4.5E2,1.04E3,3.73E0,1.56E3,1.7427025E-2,-1.4433801E-2,1.919501E-2,3.8465317E-2,-4.825687E-3,-2.6504988E-2,2.073292E-2,-2.981698E-2,-2.935044E-2,-3.6471223E-3,-2.3425786E-2,3.757222E-2,-3.0038564E-2,-5.308175E-3,-1.0202553E-2,5.830222E-2],"split_indices":[1,9,2,2,3,3,7,1,8,4,4,7,8,3,8,0,0,0,0,0,0,0,0,0,0,0,0,0,0,0,0],"split_type":[0,0,0,0,0,0,0,0,0,0,0,0,0,0,0,0,0,0,0,0,0,0,0,0,0,0,0,0,0,0,0],"sum_hessian":[7.199646E2,5.271541E2,1.9281046E2,3.9751294E2,1.296412E2,1.707129E2,2.2097557E1,8.9245514E1,3.0826743E2,9.0665665E1,3.897553E1,1.6578084E2,4.932066E0,1.2387767E1,9.709789E0,4.60049E1,4.324061E1,1.3081549E2,1.7745193E2,2.6842066E1,6.38236E1,3.100493E1,7.9705997E0,1.5742967E2,8.351165E0,2.2208457E0,2.7112203E0,8.843186E0,3.544581E0,4.595127E0,5.114662E0],"tree_param":{"num_deleted":"0","num_feature":"10","num_nodes":"31","size_leaf_vector":"1"}},{"base_weights":[-1.722578E-1,-3.849709E-1,4.1753224E-1,-2.1579224E-1,-5.070389E-1,5.5989057E-1,-9.5237084E-2,-3.9924484E-1,7.483634E-2,-3.5833126E-1,-5.8321095E-1,6.328171E-1,6.626441E-2,5.5660206E-1,-2.477184E-1,1.4395403E-3,-2.3761824E-2,1.895664E-2,-1.2364323E-2,-4.7406713E-3,-2.7309334E-2,-2.9957613E-2,-1.1353656E-2,1.979302E-2,3.9552093E-2,2.492732E-2,-1.2276347E-2,4.1007176E-2,-2.099973E-2,-2.5326986E-2,7.1364106E-3],"categories":[],"categories_nodes":[],"categories_segments":[],"categories_sizes":[],"default_left":[0,0,0,0,0,0,0,0,0,0,0,0,0,0,0,0,0,0,0,0,0,0,0,0,0,0,0,0,0,0,0],"id":41,"left_children":[1,3,5,7,9,11,13,15,17,19,21,23,25,27,29,-1,-1,-1,-1,-1,-1,-1,-1,-1,-1,-1,-1,-1,-1,-1,-1],"loss_changes":[8.2475E1,9.859543E0,1.2783426E1,1.0909816E1,2.9588776E0,4.8769836E0,3.9893532E0,4.0878944E0,7.916532E0,4.765994E0,9.048462E-1,4.1460876E0,2.6435733E0,2.3144174E0,3.3157606E0,0E0,0E0,0E0,0E0,0E0,0E0,0E0,0E0,0E0,0E0,0E0,0E0,0E0,0E0,0E0,0E0],"parents":[2147483647,0,0,1,1,2,2,3,3,4,4,5,5,6,6,7,7,8,8,9,9,10,10,11,11,12,12,13,13,14,14],"right_children":[2,4,6,8,10,12,14,16,18,20,22,24,26,28,30,-1,-1,-1,-1,-1,-1,-1,-1,-1,-1,-1,-1,-1,-1,-1,-1],"split_conditions":[1.6046E0,1.9E2,7.8E1,9.4807E-1,2.93E0,3.667E2,2.75E2,2.55E0,6.5E1,5.8E1,1.4577E0,2.56962E0,7.8E2,3.49E0,1.41804E2,1.4395403E-3,-2.3761824E-2,1.895664E-2,-1.2364323E-2,-4.7406713E-3,-2.7309334E-2,-2.9957613E-2,-1.1353656E-2,1.979302E-2,3.9552093E-2,2.492732E-2,-1.2276347E-2,4.1007176E-2,-2.099973E-2,-2.5326986E-2,7.1364106E-3],"split_indices":[4,7,0,4,3,7,8,3,0,0,4,4,8,3,5,0,0,0,0,0,0,0,0,0,0,0,0,0,0,0,0],"split_type":[0,0,0,0,0,0,0,0,0,0,0,0,0,0,0,0,0,0,0,0,0,0,0,0,0,0,0,0,0,0,0],"sum_hessian":[6.551202E2,4.817279E2,1.7339224E2,2.0306302E2,2.786649E2,1.3564243E2,3.7749825E1,1.2425572E2,7.88073E1,9.63225E1,1.8234239E2,1.1793688E2,1.7705544E1,6.6540914E0,3.1095732E1,1.8827541E1,1.0542818E2,4.0433968E1,3.8373325E1,4.0714355E1,5.5608143E1,1.73877E2,8.465391E0,4.8622276E1,6.9314606E1,7.1682186E0,1.0537325E1,5.36619E0,1.2879015E0,1.8521059E1,1.2574672E1],"tree_param":{"num_deleted":"0","num_feature":"10","num_nodes":"31","size_leaf_vector":"1"}},{"base_weights":[6.21544E-2,-4.6001565E-1,4.4818756E-1,-5.889861E-1,-2.4314931E-1,2.0500208E-1,6.17049E-1,-6.0312784E-1,3.7071522E-2,-3.423295E-1,2.1881317E-1,3.26741E-1,-2.930245E-1,6.7902386E-1,1.6701877E-1,-1.2985148E-2,-3.0886475E-2,-7.117286E-3,-2.6073774E-2,3.5541855E-2,-1.4701015E-2,1.9980835E-2,-1.369772E-2,1.1430901E-2,-2.261557E-2,3.7326958E-2,1.8821506E-2,2.2532027E-2,-1.1895679E-2],"categories":[],"categories_nodes":[],"categories_segments":[],"categories_sizes":[],"default_left":[0,0,0,0,0,0,0,0,0,0,0,0,0,0,0,0,0,0,0,0,0,0,0,0,0,0,0,0,0],"id":42,"left_children":[1,3,5,7,9,11,13,15,-1,17,19,21,23,25,27,-1,-1,-1,-1,-1,-1,-1,-1,-1,-1,-1,-1,-1,-1],"loss_changes":[1.4336464E2,8.313732E0,1.6662148E1,4.001274E0,5.3192654E0,1.0344661E1,6.6024246E0,7.796478E-1,0E0,3.315689E0,5.4676895E0,6.0766325E0,2.9062085E0,4.0361786E0,3.6069095E0,0E0,0E0,0E0,0E0,0E0,0E0,0E0,0E0,0E0,0E0,0E0,0E0,0E0,0E0],"parents":[2147483647,0,0,1,1,2,2,3,3,4,4,5,5,6,6,7,7,9,9,10,10,11,11,12,12,13,13,14,14],"right_children":[2,4,6,8,10,12,14,16,-1,18,20,22,24,26,28,-1,-1,-1,-1,-1,-1,-1,-1,-1,-1,-1,-1,-1,-1],"split_conditions":[6.3E1,2E0,7.3E1,2.3331801E2,7.167149E1,1.355E1,2.56962E0,2.17E0,3.7071522E-2,1.13E1,3.01E0,1.3E1,1.02E3,1.34E1,1.1E1,-1.2985148E-2,-3.0886475E-2,-7.117286E-3,-2.6073774E-2,3.5541855E-2,-1.4701015E-2,1.9980835E-2,-1.369772E-2,1.1430901E-2,-2.261557E-2,3.7326958E-2,1.8821506E-2,2.2532027E-2,-1.1895679E-2],"split_indices":[0,1,0,6,6,2,4,3,0,2,3,9,8,2,9,0,0,0,0,0,0,0,0,0,0,0,0,0,0],"split_type":[0,0,0,0,0,0,0,0,0,0,0,0,0,0,0,0,0,0,0,0,0,0,0,0,0,0,0,0,0],"sum_hessian":[7.0919965E2,3.013649E2,4.0783472E2,1.8790306E2,1.13461845E2,1.6804257E2,2.3979213E2,1.8646765E2,1.4354067E0,9.362102E1,1.984083E1,1.3531079E2,3.273179E1,2.1031961E2,2.9472519E1,8.370998E0,1.7809666E2,4.5085667E1,4.853535E1,9.92881E0,9.91202E0,1.2096963E2,1.4341154E1,7.554989E0,2.5176802E1,1.707536E2,3.956601E1,1.7266136E1,1.2206384E1],"tree_param":{"num_deleted":"0","num_feature":"10","num_nodes":"29","size_leaf_vector":"1"}},{"base_weights":[7.932447E-2,2.7727768E-1,-4.676818E-1,4.5332244E-1,-2.6014388E-1,-5.638026E-1,-1.6068652E-1,1.4982091E-1,6.284832E-1,8.99697E-2,-4.559678E-1,-1.2421844E-2,-5.917978E-1,2.6055765E-1,-5.6867135E-1,-5.873358E-3,2.5326734E-2,3.355605E-2,-1.258283E-2,1.7938832E-2,-1.66817E-2,-2.460981E-2,1.8711375E-2,3.7775975E-2,-2.7708698E-2,-3.0239893E-2,-1.3094941E-2,3.1304322E-2,-1.2727025E-2,-1.33590195E-2,-2.996757E-2],"categories":[],"categories_nodes":[],"categories_segments":[],"categories_sizes":[],"default_left":[0,0,0,0,0,0,0,0,0,0,0,0,0,0,0,0,0,0,0,0,0,0,0,0,0,0,0,0,0,0,0],"id":43,"left_children":[1,3,5,7,9,11,13,15,17,19,21,23,25,27,29,-1,-1,-1,-1,-1,-1,-1,-1,-1,-1,-1,-1,-1,-1,-1,-1],"loss_changes":[7.786556E1,5.005022E1,5.549576E0,2.1059265E1,9.012863E0,2.2333794E0,8.221179E0,1.4067905E1,9.625214E0,5.5595813E0,2.7132206E0,3.7617836E0,4.3398285E-1,4.6399813E0,6.349516E-2,0E0,0E0,0E0,0E0,0E0,0E0,0E0,0E0,0E0,0E0,0E0,0E0,0E0,0E0,0E0,0E0],"parents":[2147483647,0,0,1,1,2,2,3,3,4,4,5,5,6,6,7,7,8,8,9,9,10,10,11,11,12,12,13,13,14,14],"right_children":[2,4,6,8,10,12,14,16,18,20,22,24,26,28,30,-1,-1,-1,-1,-1,-1,-1,-1,-1,-1,-1,-1,-1,-1,-1,-1],"split_conditions":[4E0,1E1,3.49E0,3E0,4.35108E1,6.3E1,5E0,1.748E3,1.04232E2,1.2E1,3.6E3,5E0,2.804E3,4.6965E1,7.3E1,-5.873358E-3,2.5326734E-2,3.355605E-2,-1.258283E-2,1.7938832E-2,-1.66817E-2,-2.460981E-2,1.8711375E-2,3.7775975E-2,-2.7708698E-2,-3.0239893E-2,-1.3094941E-2,3.1304322E-2,-1.2727025E-2,-1.33590195E-2,-2.996757E-2],"split_indices":[1,9,3,3,5,0,1,8,5,9,8,9,8,5,0,0,0,0,0,0,0,0,0,0,0,0,0,0,0,0,0],"split_type":[0,0,0,0,0,0,0,0,0,0,0,0,0,0,0,0,0,0,0,0,0,0,0,0,0,0,0,0,0,0,0],"sum_hessian":[7.1690454E2,5.2676825E2,1.9013628E2,3.9690833E2,1.2985995E2,1.4416228E2,4.5973995E1,1.459228E2,2.5098552E2,4.6773743E1,8.308621E1,7.035631E0,1.3712665E2,2.2797224E1,2.3176771E1,8.380091E1,6.21219E1,2.39615E2,1.1370515E1,2.8708916E1,1.8064829E1,8.000218E1,3.0840316E0,2.7470555E0,4.2885756E0,1.3112622E2,6.000437E0,1.3208568E1,9.588657E0,3.037367E0,2.0139404E1],"tree_param":{"num_deleted":"0","num_feature":"10","num_nodes":"31","size_leaf_vector":"1"}},{"base_weights":[-1.8278244E-1,-3.9603558E-1,4.4483435E-1,-4.9210632E-1,3.0856785E-1,1.8879172E-1,6.706766E-1,-5.7423544E-1,-3.1923366E-1,5.2592415E-1,-5.3529967E-2,-5.31334E-2,4.923154E-1,7.0410407E-1,-3.0104783E-1,9.554843E-3,-2.9012818E-2,-7.5824508E-3,-2.6066763E-2,3.1571586E-2,-2.0975573E-2,-3.0189967E-2,7.086848E-3,8.198283E-3,-2.7208788E-2,3.1002928E-2,-1.5478814E-2,1.7619392E-2,3.9066207E-2,-2.748465E-3,-2.1274062E-2],"categories":[],"categories_nodes":[],"categories_segments":[],"categories_sizes":[],"default_left":[0,0,0,0,0,0,0,0,0,0,0,0,0,0,0,0,0,0,0,0,0,0,0,0,0,0,0,0,0,0,0],"id":44,"left_children":[1,3,5,7,9,11,13,15,17,19,21,23,25,27,29,-1,-1,-1,-1,-1,-1,-1,-1,-1,-1,-1,-1,-1,-1,-1,-1],"loss_changes":[8.746652E1,3.313935E1,9.465073E0,5.9108887E0,4.67853E0,5.8367414E0,3.0620575E0,1.4459839E0,4.6794205E0,3.957199E0,2.5645857E0,4.8796463E0,3.797162E0,2.0366096E0,8.7411046E-2,0E0,0E0,0E0,0E0,0E0,0E0,0E0,0E0,0E0,0E0,0E0,0E0,0E0,0E0,0E0,0E0],"parents":[2147483647,0,0,1,1,2,2,3,3,4,4,5,5,6,6,7,7,8,8,9,9,10,10,11,11,12,12,13,13,14,14],"right_children":[2,4,6,8,10,12,14,16,18,20,22,24,26,28,30,-1,-1,-1,-1,-1,-1,-1,-1,-1,-1,-1,-1,-1,-1,-1,-1],"split_conditions":[1.1E1,2.26E0,1.3E1,8E0,4E0,1.4916E0,4.215E0,1.05E2,3E0,2.61E3,7E0,4E0,6E0,9.7519E-1,1.23E1,9.554843E-3,-2.9012818E-2,-7.5824508E-3,-2.6066763E-2,3.1571586E-2,-2.0975573E-2,-3.0189967E-2,7.086848E-3,8.198283E-3,-2.7208788E-2,3.1002928E-2,-1.5478814E-2,1.7619392E-2,3.9066207E-2,-2.748465E-3,-2.1274062E-2],"split_indices":[9,4,9,9,1,4,3,8,1,8,9,1,1,4,2,0,0,0,0,0,0,0,0,0,0,0,0,0,0,0,0],"split_type":[0,0,0,0,0,0,0,0,0,0,0,0,0,0,0,0,0,0,0,0,0,0,0,0,0,0,0,0,0,0,0],"sum_hessian":[6.511932E2,4.863194E2,1.6487378E2,4.2823264E2,5.8086746E1,7.8130905E1,8.674288E1,2.8873657E2,1.3949606E2,3.6015373E1,2.2071373E1,4.393624E1,3.4194664E1,8.41244E1,2.6184847E0,2.013838E0,2.8672275E2,7.721718E1,6.227888E1,3.2698456E1,3.3169155E0,5.2328463E0,1.6838526E1,3.0928331E1,1.300791E1,2.9691496E1,4.5031667E0,1.614622E1,6.797818E1,1.363599E0,1.2548858E0],"tree_param":{"num_deleted":"0","num_feature":"10","num_nodes":"31","size_leaf_vector":"1"}},{"base_weights":[6.296544E-2,-4.3365958E-1,4.405017E-1,-5.6589746E-1,-2.3314379E-1,2.2314128E-1,6.132145E-1,1.6642196E-2,-5.758057E-1,-3.4348276E-1,1.7421247E-1,3.8917404E-1,-6.39895E-2,6.641812E-1,5.1275536E-2,-2.92559E-2,1.7983662E-2,6.3975896E-3,-2.141676E-2,2.161455E-2,-1.9296952E-2,2.5397679E-2,-1.07498085E-2,-2.58655E-2,4.142309E-3,3.450061E-2,2.436552E-3,1.4583729E-2,-2.636144E-2],"categories":[],"categories_nodes":[],"categories_segments":[],"categories_sizes":[],"default_left":[0,0,0,0,0,0,0,0,0,0,0,0,0,0,0,0,0,0,0,0,0,0,0,0,0,0,0,0,0],"id":45,"left_children":[1,3,5,7,9,11,13,-1,15,17,19,21,23,25,27,-1,-1,-1,-1,-1,-1,-1,-1,-1,-1,-1,-1,-1,-1],"loss_changes":[1.3156308E2,7.9053574E0,1.482547E1,1.8119469E0,5.550572E0,8.512746E0,6.310234E0,0E0,1.7814407E0,3.913414E0,4.026663E0,8.214951E0,4.442119E0,3.1938248E0,2.866254E0,0E0,0E0,0E0,0E0,0E0,0E0,0E0,0E0,0E0,0E0,0E0,0E0,0E0,0E0],"parents":[2147483647,0,0,1,1,2,2,3,3,4,4,5,5,6,6,8,8,9,9,10,10,11,11,12,12,13,13,14,14],"right_children":[2,4,6,8,10,12,14,-1,16,18,20,22,24,26,28,-1,-1,-1,-1,-1,-1,-1,-1,-1,-1,-1,-1,-1,-1],"split_conditions":[3E0,2E0,7.4E1,5.1E0,7.073735E1,1.22E1,1.3E1,1.6642196E-2,2.3331801E2,1.054E2,3.31E0,2.7007E0,6.4E1,4.62E2,1.24E1,-2.92559E-2,1.7983662E-2,6.3975896E-3,-2.141676E-2,2.161455E-2,-1.9296952E-2,